{"learner":{"attributes":{},"feature_names":[],"feature_types":[],"gradient_booster":{"model":{"gbtree_model_param":{"num_parallel_tree":"1","num_trees":"100","size_leaf_vector":"0"},"tree_info":[0,0,0,0,0,0,0,0,0,0,0,0,0,0,0,0,0,0,0,0,0,0,0,0,0,0,0,0,0,0,0,0,0,0,0,0,0,0,0,0,0,0,0,0,0,0,0,0,0,0,0,0,0,0,0,0,0,0,0,0,0,0,0,0,0,0,0,0,0,0,0,0,0,0,0,0,0,0,0,0,0,0,0,0,0,0,0,0,0,0,0,0,0,0,0,0,0,0,0,0],"trees":[{"base_weights":[6.260388E-1,-1.4953681E0,1.2412592E0,1.7233968E0,-3.3219007E-1,1.8698758E0,-0E0,1.2403948E0,-1.2249321E0],"categories":[],"categories_nodes":[],"categories_segments":[],"categories_sizes":[],"default_left":[1,0,1,1,1,0,0,0,0],"id":0,"left_children":[1,-1,3,5,7,-1,-1,-1,-1],"loss_changes":[2.8522568E1,0E0,1.2967201E1,3.222538E0,7.50243E0,0E0,0E0,0E0,0E0],"parents":[2147483647,0,0,2,2,3,3,4,4],"right_children":[2,-1,4,6,8,-1,-1,-1,-1],"split_conditions":[-6.8725675E-1,-1.4953682E-1,4.3067524E-1,1.5008991E0,-4.4002026E-1,1.8698758E-1,-0E0,1.24039486E-1,-1.2249321E-1],"split_indices":[45,0,30,49,48,0,0,0,0],"split_type":[0,0,0,0,0,0,0,0,0],"sum_hessian":[2E1,4.25E0,1.575E1,1.2E1,3.75E0,1.1E1,1E0,1.25E0,2.5E0],"tree_param":{"num_deleted":"0","num_feature":"68","num_nodes":"9","size_leaf_vector":"0"}},{"base_weights":[1.3425359E-1,-7.827046E-1,1.2401268E0,-1.2896153E0,4.6013337E-1,1.5858781E0,-8.172184E-1,-2.893343E-1,-1.7319854E0,-1.1518035E0,1.4216623E0,1.137971E0,-1.3430486E0],"categories":[],"categories_nodes":[],"categories_segments":[],"categories_sizes":[],"default_left":[1,1,1,1,1,0,0,1,0,0,0,0,0],"id":1,"left_children":[1,3,5,7,9,-1,-1,11,-1,-1,-1,-1,-1],"loss_changes":[2.3431957E1,8.45628E0,8.4175E0,3.6975746E0,7.831147E0,0E0,0E0,6.8055563E0,0E0,0E0,0E0,0E0,0E0],"parents":[2147483647,0,0,1,1,2,2,3,3,4,4,7,7],"right_children":[2,4,6,8,10,-1,-1,12,-1,-1,-1,-1,-1],"split_conditions":[2.3054492E-1,6.1867166E-1,1.0624087E0,-2.2316208E-1,-1.0801983E0,1.5858781E-1,-8.172184E-2,2.1466395E-1,-1.7319855E-1,-1.1518035E-1,1.4216624E-1,1.13797106E-1,-1.3430487E-1],"split_indices":[45,4,35,37,45,0,0,50,0,0,0,0,0],"split_type":[0,0,0,0,0,0,0,0,0,0,0,0,0],"sum_hessian":[2.1609316E1,1.1936015E1,9.673302E0,8.457629E0,3.4783857E0,8.431714E0,1.2415875E0,2.9816728E0,5.4759564E0,1.243038E0,2.2353477E0,1.2403505E0,1.7413224E0],"tree_param":{"num_deleted":"0","num_feature":"68","num_nodes":"13","size_leaf_vector":"0"}},{"base_weights":[2.524653E-1,-1.3865992E0,6.6566944E-1,1.0566057E0,-1.4433916E0,1.3158377E0,-6.9616663E-1,-3.7601566E-1,1.5146072E0,1.6349963E0,1.6001363E-1],"categories":[],"categories_nodes":[],"categories_segments":[],"categories_sizes":[],"default_left":[1,0,1,1,0,1,0,0,1,0,0],"id":2,"left_children":[1,-1,3,5,-1,7,-1,-1,9,-1,-1],"loss_changes":[1.7360552E1,0E0,1.7786407E1,8.628349E0,0E0,5.6360874E0,0E0,0E0,2.0811691E0,0E0,0E0],"parents":[2147483647,0,0,2,2,3,3,5,5,8,8],"right_children":[2,-1,4,6,-1,8,-1,-1,10,-1,-1],"split_conditions":[3.4826946E-2,-1.3865992E-1,9.0076125E-1,1.2537074E0,-1.4433916E-1,-8.420595E-1,-6.961667E-2,-3.7601568E-2,1.1046667E0,1.6349964E-1,1.6001364E-2],"split_indices":[31,0,60,49,0,64,0,0,25,0,0],"split_type":[0,0,0,0,0,0,0,0,0,0,0],"sum_hessian":[2.3824469E1,4.4337506E0,1.9390718E1,1.6680758E1,2.709961E0,1.4697802E1,1.982957E0,1.4734799E0,1.3224321E1,1.199942E1,1.2249016E0],"tree_param":{"num_deleted":"0","num_feature":"68","num_nodes":"11","size_leaf_vector":"0"}},{"base_weights":[2.6053762E-1,6.29262E-1,-1.4711783E0,1.2397648E0,-9.104083E-1,-5.119331E-1,1.4989849E0,-1.5022151E0,2.60636E-1,3.6370233E-1,1.5913893E0],"categories":[],"categories_nodes":[],"categories_segments":[],"categories_sizes":[],"default_left":[1,1,0,1,1,0,1,0,0,0,0],"id":3,"left_children":[1,3,-1,5,7,-1,9,-1,-1,-1,-1],"loss_changes":[1.5865861E1,1.9763935E1,0E0,7.2723255E0,4.5621076E0,0E0,9.227123E-1,0E0,0E0,0E0,0E0],"parents":[2147483647,0,0,1,1,3,3,4,4,6,6],"right_children":[2,4,-1,6,8,-1,10,-1,-1,-1,-1],"split_conditions":[5.444193E-1,2.0010713E-1,-1.4711784E-1,-6.990555E-1,7.019991E-1,-5.1193308E-2,-1.1129024E0,-1.5022151E-1,2.60636E-2,3.6370233E-2,1.5913893E-1],"split_indices":[37,48,0,62,61,0,51,0,0,0,0],"split_type":[0,0,0,0,0,0,0,0,0,0,0],"sum_hessian":[2.2972324E1,1.93414E1,3.6309247E0,1.3956529E1,5.384872E0,1.7028863E0,1.2253642E1,3.4333115E0,1.9515605E0,1.2066865E0,1.1046956E1],"tree_param":{"num_deleted":"0","num_feature":"68","num_nodes":"11","size_leaf_vector":"0"}},{"base_weights":[2.8937846E-1,7.711271E-1,-1.0148882E0,-1.2072253E0,9.8712504E-1,-1.3984518E0,1.4949757E-1,1.1782572E0,-7.37384E-1,1.399233E0,2.6586935E-1,3.456956E-1,1.4856478E0,-1.1165578E0,1.1626512E0],"categories":[],"categories_nodes":[],"categories_segments":[],"categories_sizes":[],"default_left":[1,1,1,0,1,0,0,1,0,1,1,0,0,0,0],"id":4,"left_children":[1,3,5,-1,7,-1,-1,9,-1,11,13,-1,-1,-1,-1],"loss_changes":[1.6546896E1,9.018525E0,3.365271E0,0E0,6.4411316E0,0E0,0E0,2.955225E0,0E0,7.683029E-1,6.0497603E0,0E0,0E0,0E0,0E0],"parents":[2147483647,0,0,1,1,2,2,4,4,7,7,9,9,10,10],"right_children":[2,4,6,-1,8,-1,-1,10,-1,12,14,-1,-1,-1,-1],"split_conditions":[4.3267357E-1,-7.6348E-1,4.8315382E-1,-1.2072253E-1,9.333432E-1,-1.3984518E-1,1.4949757E-2,4.40041E-1,-7.37384E-2,-7.1135557E-1,1.180921E-1,3.456956E-2,1.4856479E-1,-1.1165579E-1,1.1626512E-1],"split_indices":[35,60,45,0,30,0,0,32,0,62,20,0,0,0,0],"split_type":[0,0,0,0,0,0,0,0,0,0,0,0,0,0,0],"sum_hessian":[2.4615847E1,1.8204624E1,6.411221E0,1.4461634E0,1.6758461E1,4.706846E0,1.704375E0,1.5304675E1,1.4537859E0,1.199185E1,3.312826E0,1.1992158E0,1.0792634E1,1.2296575E0,2.0831683E0],"tree_param":{"num_deleted":"0","num_feature":"68","num_nodes":"15","size_leaf_vector":"0"}},{"base_weights":[1.047652E-1,7.8824526E-1,-1.0612787E0,1.1933783E0,-9.545859E-1,-1.3355552E0,1.4040478E-1,-1.3462003E-1,1.4345872E0,-1.4574094E0,-4.7116953E-1],"categories":[],"categories_nodes":[],"categories_segments":[],"categories_sizes":[],"default_left":[1,1,1,1,0,1,0,0,0,1,1],"id":5,"left_children":[1,3,5,7,-1,-1,-1,-1,-1,-1,-1],"loss_changes":[1.6652027E1,1.0125591E1,2.6981058E0,3.663045E0,0E0,1.4668274E-1,0E0,0E0,0E0,0E0,0E0],"parents":[2147483647,0,0,1,1,2,2,3,3,5,5],"right_children":[2,4,6,8,-1,-1,-1,-1,-1,-1,-1],"split_conditions":[5.9914124E-1,7.348405E-1,8.965148E-1,-4.9575767E-1,-9.545859E-2,-1.3355552E-1,1.4040478E-2,-1.3462002E-2,1.4345872E-1,-1.4574094E-1,-4.7116954E-2],"split_indices":[30,48,6,27,0,62,0,0,0,2147483647,2147483647],"split_type":[0,0,0,0,0,0,0,0,0,0,0],"sum_hessian":[1.932524E1,1.2340081E1,6.985157E0,1.02084E1,2.1316817E0,5.61768E0,1.3674772E0,1.6211679E0,8.587232E0,4.4633055E0,1.1543748E0],"tree_param":{"num_deleted":"2","num_feature":"68","num_nodes":"11","size_leaf_vector":"0"}},{"base_weights":[1.534435E-1,4.6293366E-1,-1.2924744E0,-7.953774E-1,9.1256934E-1,-1.2747787E0,3.6539492E-1,1.0575072E0,-4.4520912E-1,1.2423799E0,-1.7357914E-1,1.4384087E0,-2.6175413E-1],"categories":[],"categories_nodes":[],"categories_segments":[],"categories_sizes":[],"default_left":[1,1,0,1,1,0,0,1,0,1,0,0,0],"id":6,"left_children":[1,3,-1,5,7,-1,-1,9,-1,11,-1,-1,-1],"loss_changes":[1.0434899E1,1.126458E1,0E0,3.3570454E0,3.174799E0,0E0,0E0,3.15765E0,0E0,3.686634E0,0E0,0E0,0E0],"parents":[2147483647,0,0,1,1,3,3,4,4,7,7,9,9],"right_children":[2,4,-1,6,8,-1,-1,10,-1,12,-1,-1,-1],"split_conditions":[8.4678596E-1,-6.076046E-1,-1.2924744E-1,2.7217385E-1,8.0148405E-1,-1.2747787E-1,3.653949E-2,9.0652174E-1,-4.452091E-2,6.7501277E-1,-1.7357914E-2,1.4384088E-1,-2.6175413E-2],"split_indices":[60,36,0,45,49,0,0,34,0,65,0,0,0],"split_type":[0,0,0,0,0,0,0,0,0,0,0,0,0],"sum_hessian":[2.152936E1,1.8162243E1,3.367116E0,4.626451E0,1.3535792E1,3.2209918E0,1.4054594E0,1.2383216E1,1.1525762E0,1.0760313E1,1.6229029E0,9.549241E0,1.2110717E0],"tree_param":{"num_deleted":"0","num_feature":"68","num_nodes":"13","size_leaf_vector":"0"}},{"base_weights":[-3.17537E-2,3.9503047E-1,-1.0908608E0,1.1003356E0,-6.089564E-1,-2.0891662E-1,-1.2615238E0,-2.0143583E-1,1.3137835E0,5.078132E-1,-1.2569228E0],"categories":[],"categories_nodes":[],"categories_segments":[],"categories_sizes":[],"default_left":[1,1,1,1,1,0,0,0,0,0,0],"id":7,"left_children":[1,3,5,7,9,-1,-1,-1,-1,-1,-1],"loss_changes":[9.097045E0,1.0700571E1,6.674042E-1,2.6264086E0,5.141E0,0E0,0E0,0E0,0E0,0E0,0E0],"parents":[2147483647,0,0,1,1,2,2,3,3,4,4],"right_children":[2,4,6,8,10,-1,-1,-1,-1,-1,-1],"split_conditions":[3.5756603E-1,5.873271E-1,1.06300116E-1,-6.08212E-1,-2.2832268E-1,-2.0891663E-2,-1.2615238E-1,-2.0143583E-2,1.3137835E-1,5.078132E-2,-1.256923E-1],"split_indices":[48,30,54,21,43,0,0,0,0,0,0],"split_type":[0,0,0,0,0,0,0,0,0,0,0],"sum_hessian":[1.863049E1,1.3621472E1,5.0090175E0,7.957696E0,5.6637764E0,1.0881716E0,3.920846E0,1.127064E0,6.8306317E0,2.1403897E0,3.523387E0],"tree_param":{"num_deleted":"0","num_feature":"68","num_nodes":"11","size_leaf_vector":"0"}},{"base_weights":[1.774241E-1,6.668454E-1,-8.843095E-1,1.0978373E0,-6.6731197E-1,-1.2147188E0,1.5844622E-1,-5.8557105E-1,1.3280978E0,-1.1449933E0,2.9074207E-1],"categories":[],"categories_nodes":[],"categories_segments":[],"categories_sizes":[],"default_left":[1,1,1,1,1,0,0,0,0,0,0],"id":8,"left_children":[1,3,5,7,9,-1,-1,-1,-1,-1,-1],"loss_changes":[1.0980236E1,8.786507E0,2.463357E0,4.8986244E0,2.0712137E0,0E0,0E0,0E0,0E0,0E0,0E0],"parents":[2147483647,0,0,1,1,2,2,3,3,4,4],"right_children":[2,4,6,8,10,-1,-1,-1,-1,-1,-1],"split_conditions":[5.098273E-1,3.8412926E-1,-1.1012864E-1,-9.1158074E-1,-5.5200484E-2,-1.2147188E-1,1.5844623E-2,-5.8557104E-2,1.3280979E-1,-1.1449933E-1,2.9074207E-2],"split_indices":[30,48,62,51,45,0,0,0,0,0,0],"split_type":[0,0,0,0,0,0,0,0,0,0,0],"sum_hessian":[1.9496485E1,1.3539818E1,5.956667E0,1.0336319E1,3.2034984E0,4.427518E0,1.5291489E0,1.1015803E0,9.234739E0,2.0379975E0,1.1655011E0],"tree_param":{"num_deleted":"0","num_feature":"68","num_nodes":"11","size_leaf_vector":"0"}},{"base_weights":[1.8916579E-1,-1.0378077E0,6.1336833E-1,-1.2203646E0,-1.5653655E-1,9.0886265E-1,-8.250209E-1,1.133301E0,-8.931924E-1,-3.0134526E-1,-9.9419886E-1,1.252447E-1,1.273138E0,1.3451787E0,3.5247487E-1],"categories":[],"categories_nodes":[],"categories_segments":[],"categories_sizes":[],"default_left":[1,1,1,0,0,1,1,1,0,1,1,0,1,0,0],"id":9,"left_children":[1,3,5,-1,-1,7,-1,11,-1,-1,-1,-1,13,-1,-1],"loss_changes":[1.0791383E1,7.17772E-1,7.0312066E0,0E0,0E0,6.0195017E0,3.5590887E-2,1.5509748E0,0E0,0E0,0E0,0E0,3.2279968E-1,0E0,0E0],"parents":[2147483647,0,0,1,1,2,2,5,5,6,6,7,7,12,12],"right_children":[2,4,6,-1,-1,8,-1,12,-1,-1,-1,-1,14,-1,-1],"split_conditions":[-5.369992E-1,7.4093485E-1,8.6214906E-1,-1.2203646E-1,-1.5653655E-2,1.4301164E0,-8.250209E-2,-5.093273E-1,-8.9319244E-2,-3.0134527E-2,-9.9419884E-2,1.2524471E-2,6.314717E-1,1.3451788E-1,3.5247486E-2],"split_indices":[36,23,30,0,0,33,0,63,0,2147483647,2147483647,0,19,0,0],"split_type":[0,0,0,0,0,0,0,0,0,0,0,0,0,0,0],"sum_hessian":[1.9031626E1,4.604934E0,1.4426691E1,3.5707126E0,1.0342216E0,1.2201825E1,2.2248666E0,1.1103063E1,1.0987623E0,1.0631076E0,1.161759E0,1.5293553E0,9.573708E0,8.551593E0,1.0221146E0],"tree_param":{"num_deleted":"2","num_feature":"68","num_nodes":"15","size_leaf_vector":"0"}},{"base_weights":[2.5328535E-1,6.3827723E-1,-6.1180454E-1,8.877104E-1,-1.0497196E0,-1.1379982E0,2.010407E-1,1.0835437E0,-6.258295E-1,-8.5101897E-1,1.0767447E0,5.530961E-2,1.1874534E0],"categories":[],"categories_nodes":[],"categories_segments":[],"categories_sizes":[],"default_left":[1,1,1,1,0,0,1,1,0,0,0,0,0],"id":10,"left_children":[1,3,5,7,-1,-1,9,11,-1,-1,-1,-1,-1],"loss_changes":[6.332753E0,6.149777E0,2.7287226E0,3.9764118E0,0E0,0E0,3.462258E0,1.083148E0,0E0,0E0,0E0,0E0,0E0],"parents":[2147483647,0,0,1,1,2,2,3,3,6,6,7,7],"right_children":[2,4,6,8,-1,-1,10,12,-1,-1,-1,-1,-1],"split_conditions":[6.432651E-1,1.0964434E0,-3.1388795E-1,1.1971421E0,-1.0497196E-1,-1.13799825E-1,4.527052E-1,-7.8957117E-1,-6.2582955E-2,-8.5101895E-2,1.0767447E-1,5.530961E-3,1.1874534E-1],"split_indices":[30,49,62,33,0,0,40,43,0,0,0,0,0],"split_type":[0,0,0,0,0,0,0,0,0,0,0,0,0],"sum_hessian":[1.735126E1,1.2146422E1,5.2048364E0,1.0898836E1,1.2475861E0,2.973645E0,2.2311916E0,9.842777E0,1.0560589E0,1.023341E0,1.2078507E0,1.0110378E0,8.831739E0],"tree_param":{"num_deleted":"0","num_feature":"68","num_nodes":"13","size_leaf_vector":"0"}},{"base_weights":[1.0018658E-1,-9.767242E-1,5.4355234E-1,-1.2295659E0,6.4720474E-2,1.0486909E0,-3.8653335E-1,1.1542732E-1,1.2650523E0,-1.1373436E0,8.90384E-1],"categories":[],"categories_nodes":[],"categories_segments":[],"categories_sizes":[],"default_left":[1,1,1,0,0,1,1,0,0,0,0],"id":11,"left_children":[1,3,5,-1,-1,7,9,-1,-1,-1,-1],"loss_changes":[8.821404E0,1.4864178E0,6.406827E0,0E0,0E0,1.6278467E0,5.690007E0,0E0,0E0,0E0,0E0],"parents":[2147483647,0,0,1,1,2,2,5,5,6,6],"right_children":[2,4,6,-1,-1,8,10,-1,-1,-1,-1],"split_conditions":[-6.887051E-1,-1.5037125E-1,4.0161043E-1,-1.2295659E-1,6.4720474E-3,-1.1360313E-1,4.094487E-1,1.1542733E-2,1.2650524E-1,-1.13734365E-1,8.90384E-2],"split_indices":[27,52,32,0,0,44,45,0,0,0,0],"split_type":[0,0,0,0,0,0,0,0,0,0,0],"sum_hessian":[1.685884E1,4.6480713E0,1.221077E1,3.6287987E0,1.0192727E0,7.849833E0,4.360936E0,1.6982758E0,6.151557E0,2.7988951E0,1.562041E0],"tree_param":{"num_deleted":"0","num_feature":"68","num_nodes":"11","size_leaf_vector":"0"}},{"base_weights":[1.1622508E-1,4.6093187E-1,-1.0110642E0,7.85178E-1,-8.284867E-1,-5.894368E-1,1.0172971E0,-1.1588941E0,-9.12453E-2,-2.4887899E-1,1.1881062E0,1.2840825E0,3.08622E-1],"categories":[],"categories_nodes":[],"categories_segments":[],"categories_sizes":[],"default_left":[1,1,0,1,1,0,1,0,0,0,1,0,0],"id":12,"left_children":[1,3,-1,5,7,-1,9,-1,-1,-1,11,-1,-1],"loss_changes":[7.553761E0,6.6479216E0,0E0,4.3348045E0,7.297721E-1,0E0,2.5346413E0,0E0,0E0,0E0,5.01647E-1,0E0,0E0],"parents":[2147483647,0,0,1,1,3,3,4,4,6,6,10,10],"right_children":[2,4,-1,6,8,-1,10,-1,-1,-1,12,-1,-1],"split_conditions":[7.4012184E-1,1.168093E0,-1.0110642E-1,-1.0724969E0,-2.3237133E-1,-5.8943685E-2,-8.363633E-1,-1.1588941E-1,-9.1245305E-3,-2.4887899E-2,9.878504E-1,1.2840825E-1,3.0862201E-2],"split_indices":[30,56,0,45,66,0,61,0,0,0,34,0,0],"split_type":[0,0,0,0,0,0,0,0,0,0,0,0,0],"sum_hessian":[1.7755642E1,1.3944218E1,3.8114247E0,1.1381499E1,2.5627189E0,1.4740102E0,9.907489E0,1.4673108E0,1.095408E0,1.1360778E0,8.771411E0,7.590879E0,1.1805322E0],"tree_param":{"num_deleted":"0","num_feature":"68","num_nodes":"13","size_leaf_vector":"0"}},{"base_weights":[2.6409734E-2,-7.034115E-1,6.3247114E-1,-1.1379143E0,6.3871473E-1,8.581526E-1,-4.660073E-1,-1.2931675E0,-3.212726E-1,-2.8100842E-1,1.124423E0],"categories":[],"categories_nodes":[],"categories_segments":[],"categories_sizes":[],"default_left":[1,1,1,1,0,1,0,0,0,0,0],"id":13,"left_children":[1,3,5,7,-1,9,-1,-1,-1,-1,-1],"loss_changes":[7.1836953E0,4.860844E0,2.501402E0,4.2383766E-1,0E0,2.5518246E0,0E0,0E0,0E0,0E0,0E0],"parents":[2147483647,0,0,1,1,2,2,3,3,5,5],"right_children":[2,4,6,8,-1,10,-1,-1,-1,-1,-1],"split_conditions":[-1.388924E-1,7.2328556E-1,8.985275E-1,9.954026E-1,6.387147E-2,-8.339763E-1,-4.660073E-2,-1.2931675E-1,-3.212726E-2,-2.8100843E-2,1.1244231E-1],"split_indices":[45,8,35,24,0,61,0,0,0,0,0],"split_type":[0,0,0,0,0,0,0,0,0,0,0],"sum_hessian":[1.470565E1,6.615856E0,8.089795E0,5.0858316E0,1.5300245E0,6.8499517E0,1.2398428E0,3.8980837E0,1.1877478E0,1.2897518E0,5.5602E0],"tree_param":{"num_deleted":"0","num_feature":"68","num_nodes":"11","size_leaf_vector":"0"}},{"base_weights":[2.5826478E-1,-1.0767109E0,5.880803E-1,8.9090323E-1,-4.554486E-1,-2.3723099E-1,1.1969519E0,-9.6401966E-1,4.513177E-1,-8.891919E-1,5.302391E-1],"categories":[],"categories_nodes":[],"categories_segments":[],"categories_sizes":[],"default_left":[1,0,1,1,1,1,0,0,0,0,0],"id":14,"left_children":[1,-1,3,5,7,9,-1,-1,-1,-1,-1],"loss_changes":[8.013761E0,0E0,4.8001976E0,4.108758E0,2.0402775E0,1.8840151E0,0E0,0E0,0E0,0E0,0E0],"parents":[2147483647,0,0,2,2,3,3,4,4,5,5],"right_children":[2,-1,4,6,8,10,-1,-1,-1,-1,-1],"split_conditions":[-9.529283E-1,-1.076711E-1,8.333431E-1,-5.009427E-1,3.3880085E-1,-2.2159684E-1,1.1969519E-1,-9.640197E-2,4.513177E-2,-8.891919E-2,5.3023912E-2],"split_indices":[51,0,56,63,45,67,0,0,0,0,0],"split_type":[0,0,0,0,0,0,0,0,0,0,0],"sum_hessian":[1.633452E1,2.8926384E0,1.3441881E1,1.0505296E1,2.9365854E0,2.2785175E0,8.226778E0,1.850421E0,1.0861645E0,1.1663247E0,1.1121927E0],"tree_param":{"num_deleted":"0","num_feature":"68","num_nodes":"11","size_leaf_vector":"0"}},{"base_weights":[1.1497005E-1,-3.2860917E-1,6.61129E-1,3.2439667E-1,-7.961234E-1,1.0899413E0,-9.092093E-1,-5.0644636E-1,1.0041689E0,-1.1677343E0,2.1473803E-1,1.3178295E0,8.6268224E-2],"categories":[],"categories_nodes":[],"categories_segments":[],"categories_sizes":[],"default_left":[1,1,1,1,1,1,0,0,0,0,0,0,0],"id":15,"left_children":[1,3,5,7,9,11,-1,-1,-1,-1,-1,-1,-1],"loss_changes":[4.3940187E0,3.293655E0,6.196284E0,3.086153E0,2.4952395E0,1.4434323E0,0E0,0E0,0E0,0E0,0E0,0E0,0E0],"parents":[2147483647,0,0,1,1,2,2,3,3,4,4,5,5],"right_children":[2,4,6,8,10,12,-1,-1,-1,-1,-1,-1,-1],"split_conditions":[2.453697E-1,-5.9490454E-1,1.3592756E0,-7.5460565E-1,5.4725325E-1,1.0451638E0,-9.092093E-2,-5.0644636E-2,1.0041689E-1,-1.1677343E-1,2.1473803E-2,1.3178295E-1,8.626822E-3],"split_indices":[51,54,50,27,45,54,0,0,0,0,0,0,0],"split_type":[0,0,0,0,0,0,0,0,0,0,0,0,0],"sum_hessian":[1.6685314E1,9.375576E0,7.309738E0,4.0095396E0,5.366036E0,5.9257665E0,1.3839713E0,1.8921113E0,2.1174283E0,3.8367748E0,1.5292611E0,4.6339955E0,1.291771E0],"tree_param":{"num_deleted":"0","num_feature":"68","num_nodes":"13","size_leaf_vector":"0"}},{"base_weights":[-5.153192E-2,-5.523899E-1,5.336139E-1,5.0038207E-1,-1.0365553E0,7.9639226E-1,-6.721131E-1,1.046899E0,-3.4546474E-1,-1.6855067E-2,-1.2235222E0,1.0317688E0,-3.16838E-1,1.1528469E0,2.9715672E-1],"categories":[],"categories_nodes":[],"categories_segments":[],"categories_sizes":[],"default_left":[1,1,1,1,1,1,0,0,0,0,0,1,0,0,0],"id":16,"left_children":[1,3,5,7,9,11,-1,-1,-1,-1,-1,13,-1,-1,-1],"loss_changes":[5.2811584E0,5.3262424E0,3.0537333E0,1.9237617E0,1.2946124E0,2.1373687E0,0E0,0E0,0E0,0E0,0E0,2.825408E-1,0E0,0E0,0E0],"parents":[2147483647,0,0,1,1,2,2,3,3,4,4,5,5,11,11],"right_children":[2,4,6,8,10,12,-1,-1,-1,-1,-1,14,-1,-1,-1],"split_conditions":[-9.767104E-2,-6.267737E-1,6.933017E-1,-8.293089E-2,-1.0610206E0,4.4420916E-1,-6.7211315E-2,1.04689896E-1,-3.4546476E-2,-1.6855067E-3,-1.2235222E-1,5.9536874E-1,-3.16838E-2,1.15284696E-1,2.9715672E-2],"split_indices":[45,32,30,37,57,39,0,0,0,0,0,59,0,0,0],"split_type":[0,0,0,0,0,0,0,0,0,0,0,0,0,0,0],"sum_hessian":[1.6484436E1,8.905008E0,7.5794277E0,2.7971754E0,6.107833E0,6.4365177E0,1.1429098E0,1.5887221E0,1.2084533E0,1.0756781E0,5.032155E0,5.359371E0,1.0771465E0,4.2268863E0,1.132485E0],"tree_param":{"num_deleted":"0","num_feature":"68","num_nodes":"15","size_leaf_vector":"0"}},{"base_weights":[1.5834561E-1,-5.6064945E-1,6.365278E-1,-1.0779558E0,2.740037E-1,9.462626E-1,-8.5882837E-1,-4.352305E-1,8.3987665E-1,6.4653955E-2,1.1623784E0],"categories":[],"categories_nodes":[],"categories_segments":[],"categories_sizes":[],"default_left":[1,1,1,0,1,1,0,0,0,0,0],"id":17,"left_children":[1,3,5,-1,7,9,-1,-1,-1,-1,-1],"loss_changes":[4.948995E0,2.7472835E0,4.571167E0,0E0,1.4214628E0,1.357625E0,0E0,0E0,0E0,0E0,0E0],"parents":[2147483647,0,0,1,1,2,2,4,4,5,5],"right_children":[2,4,6,-1,8,10,-1,-1,-1,-1,-1],"split_conditions":[-4.9943376E-1,-2.2028266E-1,1.3824528E0,-1.0779559E-1,-2.19845E-1,-3.4785143E-1,-8.5882835E-2,-4.352305E-2,8.398767E-2,6.4653954E-3,1.1623784E-1],"split_indices":[27,52,50,0,61,42,0,0,0,0,0],"split_type":[0,0,0,0,0,0,0,0,0,0,0],"sum_hessian":[1.283449E1,5.073682E0,7.7608085E0,2.9945567E0,2.0791252E0,6.661989E0,1.0988193E0,1.0011126E0,1.0780127E0,1.5073789E0,5.15461E0],"tree_param":{"num_deleted":"0","num_feature":"68","num_nodes":"11","size_leaf_vector":"0"}},{"base_weights":[1.2573497E-1,-8.405583E-1,4.58159E-1,-3.019184E-1,-9.574446E-1,-1.1831504E-1,9.296649E-1,-9.6008295E-1,5.767348E-1,2.0168135E-1,1.0665913E0,1.157123E0,-9.407474E-2],"categories":[],"categories_nodes":[],"categories_segments":[],"categories_sizes":[],"default_left":[1,1,1,1,1,1,1,0,1,0,0,0,0],"id":18,"left_children":[1,-1,5,-1,-1,7,9,-1,11,-1,-1,-1,-1],"loss_changes":[4.6053944E0,1.1982441E-2,2.9327867E0,0E0,0E0,3.5798662E0,4.1859245E-1,0E0,1.4198284E0,0E0,0E0,0E0,0E0],"parents":[2147483647,0,0,1,1,2,2,5,5,6,6,8,8],"right_children":[2,-1,6,-1,-1,8,10,-1,12,-1,-1,-1,-1],"split_conditions":[-8.339763E-1,-8.405583E-2,4.6283245E-2,-3.0191839E-2,-9.574446E-2,1.1420234E-1,-6.426312E-1,-9.600829E-2,3.0495912E-1,2.0168135E-2,1.0665913E-1,1.157123E-1,-9.407475E-3],"split_indices":[61,26,45,2147483647,2147483647,44,22,0,1,0,0,0,0],"split_type":[0,0,0,0,0,0,0,0,0,0,0,0,0],"sum_hessian":[1.2654007E1,2.9394586E0,9.714549E0,1.0131892E0,1.9262693E0,4.6287436E0,5.0858054E0,1.9614087E0,2.6673348E0,1.1048324E0,3.9809728E0,1.1325202E0,1.5348146E0],"tree_param":{"num_deleted":"2","num_feature":"68","num_nodes":"13","size_leaf_vector":"0"}},{"base_weights":[1.9178389E-1,-2.1884353E-1,7.683707E-1,-9.8752755E-1,2.2021705E-1,1.0676634E0,-4.0165368E-1,-4.2741668E-1,9.7060543E-1,6.8796414E-1,-1.0012234E0,1.1501404E0,3.7682474E-1],"categories":[],"categories_nodes":[],"categories_segments":[],"categories_sizes":[],"default_left":[1,1,1,0,1,0,0,1,1,0,0,1,1],"id":19,"left_children":[1,3,5,-1,7,-1,-1,9,-1,-1,-1,-1,-1],"loss_changes":[3.574973E0,3.2367473E0,2.5078163E0,0E0,3.4355443E0,0E0,0E0,3.071446E0,1.00317E-2,0E0,0E0,0E0,0E0],"parents":[2147483647,0,0,1,1,2,2,4,4,7,7,8,8],"right_children":[2,4,6,-1,8,-1,-1,10,-1,-1,-1,-1,-1],"split_conditions":[3.2023066E-1,2.4777521E-1,1.2515075E0,-9.875276E-2,-4.23563E-1,1.0676634E-1,-4.016537E-2,-1.6198508E-1,9.706055E-2,6.879642E-2,-1.0012235E-1,1.1501404E-1,3.7682474E-2],"split_indices":[45,36,47,0,51,0,0,37,27,0,0,2147483647,2147483647],"split_type":[0,0,0,0,0,0,0,0,0,0,0,0,0],"sum_hessian":[1.3790265E1,8.331659E0,5.458606E0,2.6812446E0,5.6504145E0,4.400042E0,1.0585634E0,3.2097034E0,2.4407113E0,1.0385841E0,2.1711192E0,1.3233418E0,1.1173694E0],"tree_param":{"num_deleted":"2","num_feature":"68","num_nodes":"13","size_leaf_vector":"0"}},{"base_weights":[5.3410865E-2,3.5782874E-1,-7.3923E-1,6.964227E-1,-7.7258956E-1,-7.699088E-2,-9.3683547E-1,-2.643406E-1,1.0270795E0,-2.7824867E-1,-9.274596E-1,-9.097888E-1,4.8821074E-1,1.6047172E-1,1.1674247E0],"categories":[],"categories_nodes":[],"categories_segments":[],"categories_sizes":[],"default_left":[1,1,1,1,1,0,0,1,1,1,1,0,0,0,0],"id":20,"left_children":[1,3,5,7,-1,-1,-1,11,13,-1,-1,-1,-1,-1,-1],"loss_changes":[3.6169353E0,4.5225606E0,4.9130106E-1,2.9611769E0,1.9753218E-2,0E0,0E0,1.71361E0,6.5986824E-1,0E0,0E0,0E0,0E0,0E0,0E0],"parents":[2147483647,0,0,1,1,2,2,3,3,4,4,7,7,8,8],"right_children":[2,4,6,8,-1,-1,-1,12,14,-1,-1,-1,-1,-1,-1],"split_conditions":[4.324783E-1,3.5450134E-1,-6.2043095E-1,-1.9695577E-1,-7.725896E-2,-7.699088E-3,-9.368355E-2,-3.9826863E-2,-9.0582395E-1,-2.7824868E-2,-9.274596E-2,-9.097888E-2,4.8821073E-2,1.6047172E-2,1.1674247E-1],"split_indices":[35,58,25,36,32,0,0,45,28,2147483647,2147483647,0,0,0,0],"split_type":[0,0,0,0,0,0,0,0,0,0,0,0,0,0,0],"sum_hessian":[1.3385092E1,9.9743185E0,3.4107726E0,7.9014797E0,2.072839E0,1.0283107E0,2.3824618E0,2.0624137E0,5.839066E0,1.0051703E0,1.0676687E0,1.0241127E0,1.0383011E0,1.0425078E0,4.7965584E0],"tree_param":{"num_deleted":"2","num_feature":"68","num_nodes":"15","size_leaf_vector":"0"}},{"base_weights":[6.420303E-2,3.733662E-1,-6.812729E-1,-9.1252565E-1,6.400071E-1,-6.0650744E-2,-8.9043117E-1,9.577342E-1,-6.374875E-1,1.1032945E-1,1.1051532E0],"categories":[],"categories_nodes":[],"categories_segments":[],"categories_sizes":[],"default_left":[1,1,1,0,1,0,0,1,0,0,0],"id":21,"left_children":[1,3,5,-1,7,-1,-1,9,-1,-1,-1],"loss_changes":[2.9553926E0,3.5196648E0,4.4964457E-1,0E0,3.6626616E0,0E0,0E0,7.324319E-1,0E0,0E0,0E0],"parents":[2147483647,0,0,1,1,2,2,4,4,7,7],"right_children":[2,4,6,-1,8,-1,-1,10,-1,-1,-1],"split_conditions":[4.3267357E-1,-7.624757E-1,1.6419185E-2,-9.1252565E-2,1.0719321E0,-6.0650744E-3,-8.904312E-2,-7.439302E-1,-6.374875E-2,1.10329455E-2,1.1051532E-1],"split_indices":[35,60,37,0,60,0,0,26,0,0,0],"split_type":[0,0,0,0,0,0,0,0,0,0,0],"sum_hessian":[1.1212797E1,8.195899E0,3.0168982E0,1.0891526E0,7.1067467E0,1.0093569E0,2.0075414E0,5.8447065E0,1.2620401E0,1.0644336E0,4.780273E0],"tree_param":{"num_deleted":"0","num_feature":"68","num_nodes":"11","size_leaf_vector":"0"}},{"base_weights":[6.537709E-2,-5.8203024E-1,4.7774005E-1,-9.5007074E-1,6.137799E-1,-6.753676E-1,7.022091E-1,-1.1112179E0,-3.099825E-1,9.3515664E-1,-4.4940165E-1,1.0976903E0,1.1578493E-1],"categories":[],"categories_nodes":[],"categories_segments":[],"categories_sizes":[],"default_left":[1,1,1,1,0,0,1,0,0,1,0,0,0],"id":22,"left_children":[1,3,5,7,-1,-1,9,-1,-1,11,-1,-1,-1],"loss_changes":[3.8122442E0,2.9071145E0,2.6037369E0,2.083087E-1,0E0,0E0,2.366291E0,0E0,0E0,7.8002787E-1,0E0,0E0,0E0],"parents":[2147483647,0,0,1,1,2,2,3,3,6,6,9,9],"right_children":[2,4,6,8,-1,-1,10,-1,-1,12,-1,-1,-1],"split_conditions":[-6.138089E-1,6.335536E-1,-1.0728366E0,-6.63134E-2,6.137799E-2,-6.7536764E-2,1.3034291E0,-1.1112179E-1,-3.099825E-2,7.7390444E-1,-4.4940166E-2,1.0976904E-1,1.1578493E-2],"split_indices":[61,3,45,67,0,0,56,0,0,62,0,0,0],"split_type":[0,0,0,0,0,0,0,0,0,0,0,0,0],"sum_hessian":[1.2717064E1,4.8257327E0,7.8913317E0,3.8103192E0,1.0154133E0,1.0352982E0,6.8560333E0,2.5938656E0,1.2164537E0,5.8221993E0,1.0338339E0,4.6414824E0,1.1807172E0],"tree_param":{"num_deleted":"0","num_feature":"68","num_nodes":"13","size_leaf_vector":"0"}},{"base_weights":[-1.1328437E-1,-5.681687E-1,6.2366647E-1,-8.104838E-2,-1.07413E0,-2.6413766E-1,9.0541035E-1,5.3034365E-1,-5.580763E-1,-8.5165125E-1,1.884435E-2],"categories":[],"categories_nodes":[],"categories_segments":[],"categories_sizes":[],"default_left":[1,1,1,1,0,0,0,0,1,0,0],"id":23,"left_children":[1,3,5,7,-1,-1,-1,-1,9,-1,-1],"loss_changes":[4.2386894E0,1.835712E0,1.4042145E0,1.6149596E0,0E0,0E0,0E0,0E0,5.283647E-1,0E0,0E0],"parents":[2147483647,0,0,1,1,2,2,3,3,8,8],"right_children":[2,4,6,8,-1,-1,-1,-1,10,-1,-1],"split_conditions":[3.2493058E-1,1.4963466E-1,-4.5202482E-1,5.098273E-1,-1.0741301E-1,-2.6413767E-2,9.0541035E-2,5.3034365E-2,-3.2201746E-1,-8.516513E-2,1.884435E-3],"split_indices":[45,32,19,30,0,0,0,0,19,0,0],"split_type":[0,0,0,0,0,0,0,0,0,0,0],"sum_hessian":[1.1069586E1,6.9530935E0,4.1164923E0,3.994984E0,2.9581096E0,1.0031856E0,3.1133065E0,1.7134072E0,2.2815766E0,1.2705246E0,1.0110521E0],"tree_param":{"num_deleted":"0","num_feature":"68","num_nodes":"11","size_leaf_vector":"0"}},{"base_weights":[-4.8190538E-2,-4.2531767E-1,4.5906302E-1,-8.555669E-1,1.397969E-1,8.079087E-1,-5.805192E-1,-1.0372527E0,-2.6460332E-1,-4.6956608E-1,8.133028E-1,2.1874978E-1,9.375369E-1],"categories":[],"categories_nodes":[],"categories_segments":[],"categories_sizes":[],"default_left":[1,1,1,1,1,1,0,0,0,0,0,1,1],"id":24,"left_children":[1,3,5,7,9,-1,-1,-1,-1,-1,-1,-1,-1],"loss_changes":[2.3813903E0,1.8152529E0,2.296825E0,2.3360324E-1,1.8200291E0,1.7300487E-1,0E0,0E0,0E0,0E0,0E0,0E0,0E0],"parents":[2147483647,0,0,1,1,2,2,3,3,4,4,5,5],"right_children":[2,4,6,8,10,-1,-1,-1,-1,-1,-1,-1,-1],"split_conditions":[4.3356724E-2,6.3868E-1,6.6610664E-1,-4.618932E-1,-4.4036126E-1,8.079087E-2,-5.805192E-2,-1.0372527E-1,-2.6460333E-2,-4.695661E-2,8.1330284E-2,2.1874977E-2,9.375369E-2],"split_indices":[45,40,48,64,19,47,0,0,0,0,0,2147483647,2147483647],"split_type":[0,0,0,0,0,0,0,0,0,0,0,0,0],"sum_hessian":[1.0901744E1,6.3238254E0,4.5779185E0,3.3669584E0,2.9568672E0,3.5554354E0,1.022483E0,2.1330776E0,1.2338805E0,1.6740456E0,1.2828217E0,1.0122099E0,2.5432255E0],"tree_param":{"num_deleted":"2","num_feature":"68","num_nodes":"13","size_leaf_vector":"0"}},{"base_weights":[6.6462494E-2,-1.0138972E0,4.7458637E-1,-4.685109E-1,9.844891E-1,-8.541136E-1,1.3615902E-1,1.0841949E0,3.4018415E-1],"categories":[],"categories_nodes":[],"categories_segments":[],"categories_sizes":[],"default_left":[1,0,1,1,1,0,0,1,1],"id":25,"left_children":[1,-1,3,5,-1,-1,-1,-1,-1],"loss_changes":[5.227834E0,0E0,4.4506154E0,9.071579E-1,8.881426E-2,0E0,0E0,0E0,0E0],"parents":[2147483647,0,0,2,2,3,3,4,4],"right_children":[2,-1,4,6,-1,-1,-1,-1,-1],"split_conditions":[-7.2759324E-1,-1.0138972E-1,-5.648836E-1,-2.2057351E-1,9.844891E-2,-8.541136E-2,1.3615902E-2,1.0841949E-1,3.4018416E-2],"split_indices":[51,0,36,28,55,0,0,2147483647,2147483647],"split_type":[0,0,0,0,0,0,0,0,0],"sum_hessian":[1.0255762E1,2.5004706E0,7.7552915E0,2.7433786E0,5.011913E0,1.4823116E0,1.261067E0,3.8876717E0,1.1242409E0],"tree_param":{"num_deleted":"2","num_feature":"68","num_nodes":"9","size_leaf_vector":"0"}},{"base_weights":[2.4682444E-1,7.4523973E-1,-6.91297E-1,-2.380661E-1,1.0209697E0,-9.907776E-1,8.9492165E-2,3.470638E-1,1.103175E0],"categories":[],"categories_nodes":[],"categories_segments":[],"categories_sizes":[],"default_left":[1,1,1,0,1,0,0,1,1],"id":26,"left_children":[1,3,5,-1,-1,-1,-1,-1,-1],"loss_changes":[5.8422213E0,2.3488903E0,1.105994E0,0E0,6.0078144E-2,0E0,0E0,0E0,0E0],"parents":[2147483647,0,0,1,1,2,2,4,4],"right_children":[2,4,6,-1,-1,-1,-1,-1,-1],"split_conditions":[2.093193E-1,-6.9417995E-1,-2.0977607E-1,-2.3806611E-2,1.02096975E-1,-9.907776E-2,8.949216E-3,3.470638E-2,1.10317506E-1],"split_indices":[41,62,20,0,61,0,0,2147483647,2147483647],"split_type":[0,0,0,0,0,0,0,0,0],"sum_hessian":[1.0885834E1,7.211707E0,3.6741266E0,1.6022696E0,5.6094375E0,2.5067577E0,1.1673689E0,1.0444571E0,4.5649805E0],"tree_param":{"num_deleted":"2","num_feature":"68","num_nodes":"9","size_leaf_vector":"0"}},{"base_weights":[1.0147585E-2,-8.145469E-1,3.6495996E-1,-2.4658114E-1,-9.612869E-1,6.106896E-1,-7.6335186E-1,-3.5664225E-1,8.580588E-1,1.6549073E-1,1.1076633E0],"categories":[],"categories_nodes":[],"categories_segments":[],"categories_sizes":[],"default_left":[1,1,1,1,1,1,0,0,1,0,0],"id":27,"left_children":[1,-1,5,-1,-1,7,-1,-1,9,-1,-1],"loss_changes":[3.541757E0,1.2225175E-1,2.699079E0,0E0,0E0,1.9959607E0,0E0,0E0,9.1205454E-1,0E0,0E0],"parents":[2147483647,0,0,1,1,2,2,5,5,8,8],"right_children":[2,-1,6,-1,-1,8,-1,-1,10,-1,-1],"split_conditions":[-6.8725675E-1,-8.145469E-2,1.2472441E0,-2.4658114E-2,-9.6128695E-2,-6.266618E-1,-7.6335184E-2,-3.5664227E-2,-5.614128E-1,1.6549073E-2,1.1076633E-1],"split_indices":[45,52,47,2147483647,2147483647,51,0,0,38,0,0],"split_type":[0,0,0,0,0,0,0,0,0,0,0],"sum_hessian":[1.0560767E1,2.878466E0,7.6823015E0,1.0122607E0,1.8662052E0,6.5967917E0,1.0855101E0,1.2745491E0,5.3222423E0,1.7472445E0,3.574998E0],"tree_param":{"num_deleted":"2","num_feature":"68","num_nodes":"11","size_leaf_vector":"0"}},{"base_weights":[-1.3596165E-1,-1.0639458E0,1.0530267E-1,3.5093072E-1,-6.937941E-1,7.230264E-1,-4.511536E-1,6.4418025E-2,9.8976505E-1,8.6487204E-2,-7.890312E-1],"categories":[],"categories_nodes":[],"categories_segments":[],"categories_sizes":[],"default_left":[1,0,1,1,0,1,1,0,0,0,0],"id":28,"left_children":[1,-1,3,5,-1,7,9,-1,-1,-1,-1],"loss_changes":[2.7724414E0,0E0,2.1924558E0,2.73457E0,0E0,1.0020075E0,6.171571E-1,0E0,0E0,0E0,0E0],"parents":[2147483647,0,0,2,2,3,3,5,5,6,6],"right_children":[2,-1,4,6,-1,8,10,-1,-1,-1,-1],"split_conditions":[-7.624757E-1,-1.0639458E-1,8.6563206E-1,5.781747E-1,-6.937941E-2,-6.624673E-1,7.754413E-1,6.4418027E-3,9.897651E-2,8.648721E-3,-7.8903124E-2],"split_indices":[60,0,30,32,0,43,35,0,0,0,0],"split_type":[0,0,0,0,0,0,0,0,0,0,0],"sum_hessian":[1.1234537E1,1.7795538E0,9.454983E0,7.560375E0,1.8946075E0,5.216046E0,2.3443298E0,1.777514E0,3.4385316E0,1.124514E0,1.2198157E0],"tree_param":{"num_deleted":"0","num_feature":"68","num_nodes":"11","size_leaf_vector":"0"}},{"base_weights":[2.094673E-2,-3.8579744E-1,8.065287E-1,6.20524E-1,-7.6608485E-1,9.856702E-1,1.8056044E-1,-1.0205055E0,2.1942335E-1,-1.253497E0,-2.5380415E-1],"categories":[],"categories_nodes":[],"categories_segments":[],"categories_sizes":[],"default_left":[1,1,1,0,1,0,0,1,0,0,0],"id":29,"left_children":[1,3,5,-1,7,-1,-1,9,-1,-1,-1],"loss_changes":[3.5559268E0,3.1800814E0,2.8873444E-1,0E0,1.5963883E0,0E0,0E0,5.8757496E-1,0E0,0E0,0E0],"parents":[2147483647,0,0,1,1,2,2,4,4,7,7],"right_children":[2,4,6,-1,8,-1,-1,10,-1,-1,-1],"split_conditions":[2.453697E-1,-1.1442615E0,4.494065E-1,6.20524E-2,7.0772514E-2,9.8567024E-2,1.8056044E-2,1.2810652E-1,2.1942336E-2,-1.253497E-1,-2.5380416E-2],"split_indices":[51,55,46,0,27,0,0,35,0,0,0],"split_type":[0,0,0,0,0,0,0,0,0,0,0],"sum_hessian":[9.617673E0,6.5934143E0,3.0242584E0,1.6756668E0,4.9177475E0,2.0093439E0,1.0149145E0,3.8870702E0,1.0306774E0,2.6083875E0,1.2786827E0],"tree_param":{"num_deleted":"0","num_feature":"68","num_nodes":"11","size_leaf_vector":"0"}},{"base_weights":[-1.9145042E-1,-7.382147E-1,2.2597541E-1,-7.393455E-2,-1.0412396E0,6.592052E-1,-6.1623746E-1,1.0174932E0,-3.6246827E-1],"categories":[],"categories_nodes":[],"categories_segments":[],"categories_sizes":[],"default_left":[1,1,1,0,0,1,0,0,0],"id":30,"left_children":[1,3,5,-1,-1,7,-1,-1,-1],"loss_changes":[2.6221867E0,9.2964745E-1,2.7862191E0,0E0,0E0,2.0574832E0,0E0,0E0,0E0],"parents":[2147483647,0,0,1,1,2,2,5,5],"right_children":[2,4,6,-1,-1,8,-1,-1,-1],"split_conditions":[-2.5459367E-1,-3.5203043E-2,2.2274646E-1,-7.3934547E-3,-1.04123965E-1,1.2472441E0,-6.162375E-2,1.0174932E-1,-3.624683E-2],"split_indices":[66,30,41,0,0,47,0,0,0],"split_type":[0,0,0,0,0,0,0,0,0],"sum_hessian":[1.0164062E1,4.145637E0,6.0184245E0,1.5970032E0,2.5486338E0,4.0839815E0,1.9344428E0,3.025951E0,1.0580307E0],"tree_param":{"num_deleted":"0","num_feature":"68","num_nodes":"9","size_leaf_vector":"0"}},{"base_weights":[-1.1812623E-1,1.9868079E-1,-8.93535E-1,-2.2410522E-1,6.63164E-1,3.166398E-1,-6.6375023E-1,-1.14512846E-1,9.6753293E-1,-7.9735714E-1,-2.4025612E-1],"categories":[],"categories_nodes":[],"categories_segments":[],"categories_sizes":[],"default_left":[1,1,0,1,1,0,1,0,0,1,1],"id":31,"left_children":[1,3,-1,5,7,-1,-1,-1,-1,-1,-1],"loss_changes":[2.6469421E0,1.6618344E0,0E0,1.277991E0,1.019705E0,0E0,1.3990641E-2,0E0,0E0,0E0,0E0],"parents":[2147483647,0,0,1,1,3,3,4,4,6,6],"right_children":[2,4,-1,6,8,-1,-1,-1,-1,-1,-1],"split_conditions":[1.042552E0,-3.1392794E-2,-8.93535E-2,-7.7206546E-1,-4.7940835E-1,3.166398E-2,-6.6375025E-2,-1.1451284E-2,9.675329E-2,-7.973572E-2,-2.4025612E-2],"split_indices":[56,51,0,54,37,0,44,0,0,2147483647,2147483647],"split_type":[0,0,0,0,0,0,0,0,0,0,0],"sum_hessian":[9.456357E0,7.1176596E0,2.3386974E0,3.933462E0,3.1841977E0,1.8599595E0,2.0735023E0,1.0299963E0,2.1542013E0,1.0625157E0,1.0109867E0],"tree_param":{"num_deleted":"2","num_feature":"68","num_nodes":"11","size_leaf_vector":"0"}},{"base_weights":[-3.0460326E-2,-9.060255E-1,2.5119862E-1,6.7722696E-1,-4.2060885E-1,-5.9728064E-3,9.462225E-1,-7.9380244E-1,1.972116E-1],"categories":[],"categories_nodes":[],"categories_segments":[],"categories_sizes":[],"default_left":[1,0,1,1,1,0,0,0,0],"id":32,"left_children":[1,-1,3,5,7,-1,-1,-1,-1],"loss_changes":[2.5462546E0,0E0,2.472455E0,9.4405246E-1,9.334794E-1,0E0,0E0,0E0,0E0],"parents":[2147483647,0,0,2,2,3,3,4,4],"right_children":[2,-1,4,6,8,-1,-1,-1,-1],"split_conditions":[-5.4560065E-1,-9.0602554E-2,1.6494828E-1,-3.7653738E-1,1.6493322E-1,-5.972806E-4,9.462225E-2,-7.9380244E-2,1.972116E-2],"split_indices":[45,0,48,51,65,0,0,0,0],"split_type":[0,0,0,0,0,0,0,0,0],"sum_hessian":[8.853054E0,1.7417518E0,7.1113024E0,4.3478975E0,2.7634046E0,1.4397316E0,2.908166E0,1.5868351E0,1.1765695E0],"tree_param":{"num_deleted":"0","num_feature":"68","num_nodes":"9","size_leaf_vector":"0"}},{"base_weights":[1.9915728E-2,4.2708266E-1,-4.6752658E-1,7.11026E-1,-4.886635E-1,-9.7311604E-1,3.984427E-1,1.6898586E-1,9.776603E-1],"categories":[],"categories_nodes":[],"categories_segments":[],"categories_sizes":[],"default_left":[1,1,1,1,0,0,0,0,0],"id":33,"left_children":[1,3,5,7,-1,-1,-1,-1,-1],"loss_changes":[2.1230621E0,1.7764097E0,2.4349446E0,5.594373E-1,0E0,0E0,0E0,0E0,0E0],"parents":[2147483647,0,0,1,1,2,2,3,3],"right_children":[2,4,6,8,-1,-1,-1,-1,-1],"split_conditions":[2.0275825E-1,8.6214906E-1,3.2023066E-1,3.9502534E-1,-4.886635E-2,-9.731161E-2,3.984427E-2,1.6898585E-2,9.7766034E-2],"split_indices":[32,30,45,9,0,0,0,0,0],"split_type":[0,0,0,0,0,0,0,0,0],"sum_hessian":[9.161512E0,5.0434456E0,4.1180663E0,3.9803855E0,1.0630603E0,2.5402482E0,1.5778183E0,1.7247593E0,2.2556262E0],"tree_param":{"num_deleted":"0","num_feature":"68","num_nodes":"9","size_leaf_vector":"0"}},{"base_weights":[-3.826176E-2,-4.2685187E-1,6.471939E-1,-8.308327E-1,3.948174E-1,8.9168954E-1,8.568529E-3,-1.0835787E0,4.038945E-2],"categories":[],"categories_nodes":[],"categories_segments":[],"categories_sizes":[],"default_left":[1,1,1,1,0,0,0,0,0],"id":34,"left_children":[1,3,5,7,-1,-1,-1,-1,-1],"loss_changes":[2.7539806E0,2.4263277E0,5.808879E-1,1.0551646E0,0E0,0E0,0E0,0E0,0E0],"parents":[2147483647,0,0,1,1,2,2,3,3],"right_children":[2,4,6,8,-1,-1,-1,-1,-1],"split_conditions":[1.7604983E-1,4.11043E-1,5.8390343E-1,2.1719322E-1,3.948174E-2,8.916896E-2,8.568529E-4,-1.0835787E-1,4.038945E-3],"split_indices":[51,1,55,45,0,0,0,0,0],"split_type":[0,0,0,0,0,0,0,0,0],"sum_hessian":[8.779857E0,5.7876124E0,2.9922447E0,3.8742611E0,1.9133512E0,1.9444741E0,1.0477706E0,2.8584313E0,1.0158298E0],"tree_param":{"num_deleted":"0","num_feature":"68","num_nodes":"9","size_leaf_vector":"0"}},{"base_weights":[-2.109841E-1,-8.809998E-1,3.1795818E-1,-1.0729735E0,-2.1333851E-1,6.525709E-1,-4.7905612E-1,-3.291989E-2,8.667214E-1],"categories":[],"categories_nodes":[],"categories_segments":[],"categories_sizes":[],"default_left":[1,1,1,0,0,1,0,0,0],"id":35,"left_children":[1,3,5,-1,-1,7,-1,-1,-1],"loss_changes":[3.4817917E0,3.7211704E-1,1.7633365E0,0E0,0E0,6.6025066E-1,0E0,0E0,0E0],"parents":[2147483647,0,0,1,1,2,2,5,5],"right_children":[2,4,6,-1,-1,8,-1,-1,-1],"split_conditions":[-2.1438746E-1,-8.088575E-2,2.2274646E-1,-1.0729735E-1,-2.133385E-2,2.1056905E-1,-4.7905613E-2,-3.2919892E-3,8.667214E-2],"split_indices":[67,41,41,0,0,9,0,0,0],"split_type":[0,0,0,0,0,0,0,0,0],"sum_hessian":[8.453942E0,3.5048368E0,4.9491057E0,2.3612142E0,1.1436226E0,3.5834045E0,1.3657011E0,1.0071987E0,2.576206E0],"tree_param":{"num_deleted":"0","num_feature":"68","num_nodes":"9","size_leaf_vector":"0"}},{"base_weights":[-4.4064574E-2,-3.6710304E-1,7.392437E-1,-6.9840133E-1,3.4515464E-1,-9.0353894E-1,-4.2250834E-2,6.972602E-1,-1.6031685E-1],"categories":[],"categories_nodes":[],"categories_segments":[],"categories_sizes":[],"default_left":[1,1,0,1,1,0,0,0,0],"id":36,"left_children":[1,3,-1,5,7,-1,-1,-1,-1],"loss_changes":[2.6873615E0,1.9424024E0,0E0,6.8924403E-1,5.9767294E-1,0E0,0E0,0E0,0E0],"parents":[2147483647,0,0,1,1,3,3,4,4],"right_children":[2,4,-1,6,8,-1,-1,-1,-1],"split_conditions":[3.9633054E-1,5.333676E-1,7.392437E-2,8.929786E-2,-1.6977945E-1,-9.03539E-2,-4.2250836E-3,6.972602E-2,-1.6031686E-2],"split_indices":[45,9,0,62,43,0,0,0,0],"split_type":[0,0,0,0,0,0,0,0,0],"sum_hessian":[9.033901E0,6.6840973E0,2.3498037E0,4.5722575E0,2.11184E0,3.2633867E0,1.3088707E0,1.0735631E0,1.038277E0],"tree_param":{"num_deleted":"0","num_feature":"68","num_nodes":"9","size_leaf_vector":"0"}},{"base_weights":[-1.2870086E-3,-3.5574508E-1,6.8967074E-1,-8.3129317E-1,1.4208801E-1,1.0530328E0,6.7441195E-2,-3.8521242E-1,5.736497E-1],"categories":[],"categories_nodes":[],"categories_segments":[],"categories_sizes":[],"default_left":[1,1,1,0,1,0,0,0,0],"id":37,"left_children":[1,3,5,-1,7,-1,-1,-1,-1],"loss_changes":[2.4959552E0,1.684617E0,7.2698987E-1,0E0,1.0665705E0,0E0,0E0,0E0,0E0],"parents":[2147483647,0,0,1,1,2,2,4,4],"right_children":[2,4,6,-1,8,-1,-1,-1,-1],"split_conditions":[7.485075E-1,-4.7602868E-1,3.5444486E-1,-8.312932E-2,-1.999159E-1,1.0530328E-1,6.74412E-3,-3.852124E-2,5.736497E-2],"split_indices":[42,61,23,0,67,0,0,0,0],"split_type":[0,0,0,0,0,0,0,0,0],"sum_hessian":[8.658763E0,5.9683814E0,2.6903815E0,2.7902718E0,3.1781096E0,1.3639121E0,1.3264693E0,1.4673957E0,1.7107139E0],"tree_param":{"num_deleted":"0","num_feature":"68","num_nodes":"9","size_leaf_vector":"0"}},{"base_weights":[2.0610953E-2,-6.7191535E-1,4.0901726E-1,-1.4160462E-1,-8.533586E-1,-1.4549394E-1,8.6304253E-1,3.8288227E-1,-6.304167E-1],"categories":[],"categories_nodes":[],"categories_segments":[],"categories_sizes":[],"default_left":[1,1,1,0,0,1,0,0,0],"id":38,"left_children":[1,3,5,-1,-1,7,-1,-1,-1],"loss_changes":[2.5678828E0,2.384026E-1,1.6296211E0,0E0,0E0,1.0551927E0,0E0,0E0,0E0],"parents":[2147483647,0,0,1,1,2,2,5,5],"right_children":[2,4,6,-1,-1,8,-1,-1,-1],"split_conditions":[-3.8444877E-1,-5.8822525E-1,-4.871027E-1,-1.4160462E-2,-8.5335866E-2,2.421787E-1,8.6304255E-2,3.828823E-2,-6.304167E-2],"split_indices":[36,25,62,0,0,24,0,0,0],"split_type":[0,0,0,0,0,0,0,0,0],"sum_hessian":[7.9990826E0,2.6734984E0,5.325584E0,1.0289755E0,1.6445229E0,2.6316614E0,2.6939228E0,1.3364892E0,1.2951721E0],"tree_param":{"num_deleted":"0","num_feature":"68","num_nodes":"9","size_leaf_vector":"0"}},{"base_weights":[-2.2780153E-3,-3.364374E-1,6.5687627E-1,1.5203221E-1,-8.722366E-1,1.37208E-1,8.264685E-1,8.7450206E-1,-4.06842E-1,-5.887207E-1,-3.5911545E-2],"categories":[],"categories_nodes":[],"categories_segments":[],"categories_sizes":[],"default_left":[1,1,1,1,0,0,0,0,1,0,0],"id":39,"left_children":[1,3,5,7,-1,-1,-1,-1,9,-1,-1],"loss_changes":[2.259963E0,1.8825788E0,2.1747482E-1,1.9729037E0,0E0,0E0,0E0,0E0,1.7927042E-1,0E0,0E0],"parents":[2147483647,0,0,1,1,2,2,3,3,8,8],"right_children":[2,4,6,8,-1,-1,-1,-1,10,-1,-1],"split_conditions":[3.9405835E-1,8.750327E-2,-6.805482E-1,-2.530502E-1,-8.7223664E-2,1.37208E-2,8.2646854E-2,8.745021E-2,-8.256984E-1,-5.887207E-2,-3.5911545E-3],"split_indices":[45,54,60,41,0,0,0,0,27,0,0],"split_type":[0,0,0,0,0,0,0,0,0,0,0],"sum_hessian":[8.726785E0,6.0397162E0,2.687068E0,3.4462087E0,2.5935078E0,1.0018821E0,1.6851858E0,1.3145478E0,2.131661E0,1.1287479E0,1.0029129E0],"tree_param":{"num_deleted":"0","num_feature":"68","num_nodes":"11","size_leaf_vector":"0"}},{"base_weights":[-1.1110247E-1,3.083655E-1,-6.670936E-1,8.749073E-1,-1.1943964E-1,-9.206048E-1,3.477166E-2,-6.719442E-1,4.0087387E-1],"categories":[],"categories_nodes":[],"categories_segments":[],"categories_sizes":[],"default_left":[1,1,1,0,1,0,0,0,0],"id":40,"left_children":[1,3,5,-1,7,-1,-1,-1,-1],"loss_changes":[2.2147727E0,1.4254942E0,7.4251306E-1,0E0,1.3091087E0,0E0,0E0,0E0,0E0],"parents":[2147483647,0,0,1,1,2,2,4,4],"right_children":[2,4,6,-1,8,-1,-1,-1,-1],"split_conditions":[2.0010713E-1,-3.3877078E-1,9.3186754E-1,8.749073E-2,-3.27597E-1,-9.2060484E-2,3.477166E-3,-6.7194425E-2,4.0087387E-2],"split_indices":[48,43,57,0,45,0,0,0,0],"split_type":[0,0,0,0,0,0,0,0,0],"sum_hessian":[8.055802E0,4.785961E0,3.2698417E0,1.714902E0,3.071059E0,2.226919E0,1.0429227E0,1.3812613E0,1.6897975E0],"tree_param":{"num_deleted":"0","num_feature":"68","num_nodes":"9","size_leaf_vector":"0"}},{"base_weights":[-2.593451E-1,4.9012417E-1,-4.7967732E-1,-7.333276E-1,1.520836E-1,-1.5153098E-1,-8.60791E-1],"categories":[],"categories_nodes":[],"categories_segments":[],"categories_sizes":[],"default_left":[1,0,1,1,0,0,0],"id":41,"left_children":[1,-1,3,5,-1,-1,-1],"loss_changes":[1.6165179E0,0E0,1.2246956E0,2.8610682E-1,0E0,0E0,0E0],"parents":[2147483647,0,0,2,2,3,3],"right_children":[2,-1,4,6,-1,-1,-1],"split_conditions":[-9.0374243E-1,4.901242E-2,2.4457365E-1,-2.8886244E-1,1.5208361E-2,-1.5153098E-2,-8.6079106E-2],"split_indices":[55,0,51,66,0,0,0],"split_type":[0,0,0,0,0,0,0],"sum_hessian":[7.933911E0,1.5895765E0,6.344334E0,4.439016E0,1.9053184E0,1.0988618E0,3.3401542E0],"tree_param":{"num_deleted":"0","num_feature":"68","num_nodes":"7","size_leaf_vector":"0"}},{"base_weights":[-1.5847823E-2,3.7782034E-1,-5.2999514E-1,-4.3927658E-1,7.653309E-1,-7.62558E-1,7.1977995E-2,2.399647E-1,9.413375E-1],"categories":[],"categories_nodes":[],"categories_segments":[],"categories_sizes":[],"default_left":[1,1,1,0,1,0,0,0,0],"id":42,"left_children":[1,3,5,-1,7,-1,-1,-1,-1],"loss_changes":[1.8805484E0,1.929196E0,6.0468984E-1,0E0,1.8407297E-1,0E0,0E0,0E0,0E0],"parents":[2147483647,0,0,1,1,2,2,4,4],"right_children":[2,4,6,-1,8,-1,-1,-1,-1],"split_conditions":[-1.0773718E-1,-1.9695577E-1,2.5813234E-1,-4.392766E-2,-2.9700056E-1,-7.62558E-2,7.1977996E-3,2.399647E-2,9.413376E-2],"split_indices":[43,36,27,0,66,0,0,0,0],"split_type":[0,0,0,0,0,0,0,0,0],"sum_hessian":[7.7682853E0,4.5145736E0,3.253712E0,1.419399E0,3.0951743E0,2.1996913E0,1.0540208E0,1.2307174E0,1.8644569E0],"tree_param":{"num_deleted":"0","num_feature":"68","num_nodes":"9","size_leaf_vector":"0"}},{"base_weights":[4.2909738E-2,-8.5761E-1,2.8473756E-1,5.6577104E-1,-4.4286418E-1,8.691286E-1,-1.7037599E-1],"categories":[],"categories_nodes":[],"categories_segments":[],"categories_sizes":[],"default_left":[1,0,1,1,0,0,0],"id":43,"left_children":[1,-1,3,5,-1,-1,-1],"loss_changes":[2.0135581E0,0E0,1.6613789E0,1.3461733E0,0E0,0E0,0E0],"parents":[2147483647,0,0,2,2,3,3],"right_children":[2,-1,4,6,-1,-1,-1],"split_conditions":[-7.624757E-1,-8.5761E-2,7.772504E-1,5.3086376E-1,-4.428642E-2,8.691286E-2,-1.7037598E-2],"split_indices":[60,0,30,54,0,0,0],"split_type":[0,0,0,0,0,0,0],"sum_hessian":[7.6223755E0,1.2009734E0,6.4214025E0,4.7550416E0,1.6663605E0,3.269456E0,1.4855859E0],"tree_param":{"num_deleted":"0","num_feature":"68","num_nodes":"7","size_leaf_vector":"0"}},{"base_weights":[-2.58864E-1,-5.9952575E-1,5.535136E-1,1.4492372E-1,-8.11651E-1,-1.9113937E-1,-9.4896066E-1],"categories":[],"categories_nodes":[],"categories_segments":[],"categories_sizes":[],"default_left":[1,1,0,0,1,0,0],"id":44,"left_children":[1,3,-1,-1,5,-1,-1],"loss_changes":[2.3275301E0,9.8168683E-1,0E0,0E0,2.4543071E-1,0E0,0E0],"parents":[2147483647,0,0,1,1,4,4],"right_children":[2,4,-1,-1,6,-1,-1],"split_conditions":[1.6064695E-1,-8.27381E-1,5.5351358E-2,1.4492372E-2,-1.4570445E-1,-1.9113937E-2,-9.489607E-2],"split_indices":[65,16,0,0,30,0,0],"split_type":[0,0,0,0,0,0,0],"sum_hessian":[6.7269673E0,4.880816E0,1.8461514E0,1.1361227E0,3.744693E0,1.0102727E0,2.7344203E0],"tree_param":{"num_deleted":"0","num_feature":"68","num_nodes":"7","size_leaf_vector":"0"}},{"base_weights":[1.8985344E-1,-4.3526608E-1,6.826567E-1,-7.7035785E-1,1.5090958E-2,-4.7545906E-2,9.279012E-1],"categories":[],"categories_nodes":[],"categories_segments":[],"categories_sizes":[],"default_left":[1,1,1,0,0,0,0],"id":45,"left_children":[1,3,5,-1,-1,-1,-1],"loss_changes":[2.57138E0,5.856034E-1,8.490505E-1,0E0,0E0,0E0,0E0],"parents":[2147483647,0,0,1,1,2,2],"right_children":[2,4,6,-1,-1,-1,-1],"split_conditions":[2.812584E-1,-8.265102E-2,3.702403E-2,-7.7035785E-2,1.5090959E-3,-4.754591E-3,9.279012E-2],"split_indices":[40,27,31,0,0,0,0],"split_type":[0,0,0,0,0,0,0],"sum_hessian":[6.843154E0,3.0560005E0,3.7871535E0,1.4403673E0,1.6156331E0,1.107302E0,2.6798515E0],"tree_param":{"num_deleted":"0","num_feature":"68","num_nodes":"7","size_leaf_vector":"0"}},{"base_weights":[-6.995928E-2,-5.183865E-1,5.814298E-1,-7.4232095E-1,2.0672846E-1,8.8929033E-1,-6.90629E-2,-8.5431474E-1,-2.1800692E-1],"categories":[],"categories_nodes":[],"categories_segments":[],"categories_sizes":[],"default_left":[1,1,1,1,0,0,0,1,1],"id":46,"left_children":[1,3,5,-1,-1,-1,-1,-1,-1],"loss_changes":[2.6349785E0,9.7476554E-1,7.9134226E-1,1.040895E-1,0E0,0E0,0E0,0E0,0E0],"parents":[2147483647,0,0,1,1,2,2,3,3],"right_children":[2,4,6,-1,-1,-1,-1,-1,-1],"split_conditions":[1.7604983E-1,7.773568E-1,6.395894E-1,-7.4232094E-2,2.0672847E-2,8.8929035E-2,-6.9062905E-3,-8.543148E-2,-2.1800693E-2],"split_indices":[51,42,55,65,0,0,0,2147483647,2147483647],"split_type":[0,0,0,0,0,0,0,0,0],"sum_hessian":[7.4654326E0,4.514129E0,2.9513032E0,3.4351127E0,1.0790167E0,1.8124889E0,1.1388143E0,2.433518E0,1.0015948E0],"tree_param":{"num_deleted":"2","num_feature":"68","num_nodes":"9","size_leaf_vector":"0"}},{"base_weights":[-2.5608817E-2,-4.59035E-1,3.9838216E-1,2.0814812E-1,-7.9857385E-1,6.952868E-1,-3.5322246E-1,2.7736053E-1,8.2767814E-1],"categories":[],"categories_nodes":[],"categories_segments":[],"categories_sizes":[],"default_left":[1,1,1,0,0,1,0,1,1],"id":47,"left_children":[1,3,5,-1,-1,-1,-1,-1,-1],"loss_changes":[1.6195469E0,1.1097156E0,1.1876686E0,0E0,0E0,1.621449E-2,0E0,0E0,0E0],"parents":[2147483647,0,0,1,1,2,2,5,5],"right_children":[2,4,6,-1,-1,-1,-1,-1,-1],"split_conditions":[-2.1848427E-2,-2.2734013E-1,1.0810751E0,2.0814812E-2,-7.985739E-2,6.9528684E-2,-3.5322245E-2,2.7736053E-2,8.2767814E-2],"split_indices":[51,39,47,0,0,37,0,2147483647,2147483647],"split_type":[0,0,0,0,0,0,0,0,0],"sum_hessian":[7.2857223E0,3.5714874E0,3.7142348E0,1.3044682E0,2.2670193E0,2.703597E0,1.0106376E0,1.2203729E0,1.4832242E0],"tree_param":{"num_deleted":"2","num_feature":"68","num_nodes":"9","size_leaf_vector":"0"}},{"base_weights":[-2.1850286E-2,-5.1518834E-1,3.6302292E-1,3.9352488E-2,-7.8543895E-1,6.3789743E-1,-3.1540838E-1,1.6789354E-1,7.9704165E-1],"categories":[],"categories_nodes":[],"categories_segments":[],"categories_sizes":[],"default_left":[1,1,1,0,0,1,0,1,1],"id":48,"left_children":[1,3,5,-1,-1,-1,-1,-1,-1],"loss_changes":[1.5909919E0,5.718918E-1,1.036561E0,0E0,0E0,1.6842818E-1,0E0,0E0,0E0],"parents":[2147483647,0,0,1,1,2,2,5,5],"right_children":[2,4,6,-1,-1,-1,-1,-1,-1],"split_conditions":[-4.8404497E-1,4.0313208E-1,6.594495E-1,3.935249E-3,-7.8543894E-2,6.378975E-2,-3.1540837E-2,1.6789354E-2,7.9704165E-2],"split_indices":[62,30,33,0,0,66,0,2147483647,2147483647],"split_type":[0,0,0,0,0,0,0,0,0],"sum_hessian":[6.8597646E0,2.892681E0,3.9670837E0,1.16211E0,1.7305709E0,2.8557696E0,1.111314E0,1.1202806E0,1.735489E0],"tree_param":{"num_deleted":"2","num_feature":"68","num_nodes":"9","size_leaf_vector":"0"}},{"base_weights":[5.0270766E-2,-3.0132607E-1,6.5225106E-1,1.0636983E-1,-8.084685E-1,8.53775E-1,1.8955767E-1,-3.8170475E-1,6.877071E-1],"categories":[],"categories_nodes":[],"categories_segments":[],"categories_sizes":[],"default_left":[1,1,1,1,0,1,1,0,0],"id":49,"left_children":[1,3,-1,7,-1,-1,-1,-1,-1],"loss_changes":[1.7441466E0,1.1569026E0,1.5754223E-1,1.2229017E0,0E0,0E0,0E0,0E0,0E0],"parents":[2147483647,0,0,1,1,2,2,3,3],"right_children":[2,4,-1,8,-1,-1,-1,-1,-1],"split_conditions":[7.7285075E-1,3.5756603E-1,6.522511E-2,-1.5037125E-1,-8.084685E-2,8.537751E-2,1.8955767E-2,-3.8170476E-2,6.8770714E-2],"split_indices":[42,48,43,52,0,2147483647,2147483647,0,0],"split_type":[0,0,0,0,0,0,0,0,0],"sum_hessian":[6.7642303E0,4.511518E0,2.2527125E0,2.8363137E0,1.6752042E0,1.1185302E0,1.1341823E0,1.6847309E0,1.151583E0],"tree_param":{"num_deleted":"2","num_feature":"68","num_nodes":"9","size_leaf_vector":"0"}},{"base_weights":[1.7674277E-2,-3.1907913E-1,7.4545527E-1,-6.62956E-1,2.1551837E-1,-8.8466704E-1,-6.7703165E-2,5.366878E-1,-2.15016E-1],"categories":[],"categories_nodes":[],"categories_segments":[],"categories_sizes":[],"default_left":[1,1,0,1,1,0,0,0,0],"id":50,"left_children":[1,3,-1,5,7,-1,-1,-1,-1],"loss_changes":[2.083158E0,1.1828127E0,0E0,4.478947E-1,4.8427013E-1,0E0,0E0,0E0,0E0],"parents":[2147483647,0,0,1,1,3,3,4,4],"right_children":[2,4,-1,6,8,-1,-1,-1,-1],"split_conditions":[7.771988E-1,2.3140687E-1,7.4545525E-2,4.2196313E-1,6.019719E-1,-8.8466704E-2,-6.7703165E-3,5.366878E-2,-2.15016E-2],"split_indices":[42,45,0,8,47,0,0,0,0],"split_type":[0,0,0,0,0,0,0,0,0],"sum_hessian":[6.9914036E0,5.0736423E0,1.9177613E0,2.9757266E0,2.0979156E0,1.8969833E0,1.0787433E0,1.0934701E0,1.0044456E0],"tree_param":{"num_deleted":"0","num_feature":"68","num_nodes":"9","size_leaf_vector":"0"}},{"base_weights":[-4.193856E-3,-3.8527128E-1,4.5763338E-1,-7.636517E-1,2.5377476E-1,-5.742291E-2,7.1674097E-1],"categories":[],"categories_nodes":[],"categories_segments":[],"categories_sizes":[],"default_left":[1,1,1,0,0,0,0],"id":51,"left_children":[1,3,5,-1,-1,-1,-1],"loss_changes":[1.4872266E0,1.2667993E0,5.41793E-1,0E0,0E0,0E0,0E0],"parents":[2147483647,0,0,1,1,2,2],"right_children":[2,4,6,-1,-1,-1,-1],"split_conditions":[1.906338E-1,4.0542907E-1,-6.9956225E-1,-7.636517E-2,2.5377477E-2,-5.742291E-3,7.16741E-2],"split_indices":[44,45,27,0,0,0,0],"split_type":[0,0,0,0,0,0,0],"sum_hessian":[6.9181676E0,3.8599868E0,3.0581808E0,2.3307092E0,1.5292777E0,1.2229774E0,1.8352035E0],"tree_param":{"num_deleted":"0","num_feature":"68","num_nodes":"7","size_leaf_vector":"0"}},{"base_weights":[-2.068254E-1,3.192009E-1,-5.6325793E-1,6.246484E-1,-1.686698E-1,-7.908149E-1,1.174406E-1],"categories":[],"categories_nodes":[],"categories_segments":[],"categories_sizes":[],"default_left":[1,1,1,0,0,0,0],"id":52,"left_children":[1,3,5,-1,-1,-1,-1],"loss_changes":[1.4469771E0,5.7379544E-1,7.587881E-1,0E0,0E0,0E0,0E0],"parents":[2147483647,0,0,1,1,2,2],"right_children":[2,4,6,-1,-1,-1,-1],"split_conditions":[4.897347E-1,-1.1700706E-1,5.794816E-1,6.246484E-2,-1.686698E-2,-7.908149E-2,1.1744061E-2],"split_indices":[59,67,9,0,0,0,0],"split_type":[0,0,0,0,0,0,0],"sum_hessian":[6.2179685E0,2.5437863E0,3.6741824E0,1.4323852E0,1.1114011E0,2.660835E0,1.0133474E0],"tree_param":{"num_deleted":"0","num_feature":"68","num_nodes":"7","size_leaf_vector":"0"}},{"base_weights":[3.7796753E-3,-4.0850118E-1,3.7428376E-1,-6.549507E-1,1.1077222E-1,-3.348846E-1,8.062787E-1],"categories":[],"categories_nodes":[],"categories_segments":[],"categories_sizes":[],"default_left":[1,1,1,0,0,0,0],"id":53,"left_children":[1,3,5,-1,-1,-1,-1],"loss_changes":[1.2950985E0,5.695259E-1,1.5734702E0,0E0,0E0,0E0,0E0],"parents":[2147483647,0,0,1,1,2,2],"right_children":[2,4,6,-1,-1,-1,-1],"split_conditions":[-2.4760929E-1,-3.484264E-1,3.7048854E-2,-6.549507E-2,1.1077222E-2,-3.3488464E-2,8.062787E-2],"split_indices":[66,63,31,0,0,0,0],"split_type":[0,0,0,0,0,0,0],"sum_hessian":[6.9467597E0,3.2508502E0,3.6959095E0,2.0689218E0,1.1819285E0,1.4642524E0,2.2316573E0],"tree_param":{"num_deleted":"0","num_feature":"68","num_nodes":"7","size_leaf_vector":"0"}},{"base_weights":[-1.8677688E-1,1.1030844E-1,-6.590854E-1,-2.712558E-1,7.45195E-1,5.136961E-1,-7.093946E-1],"categories":[],"categories_nodes":[],"categories_segments":[],"categories_sizes":[],"default_left":[1,1,0,1,0,0,0],"id":54,"left_children":[1,3,-1,5,-1,-1,-1],"loss_changes":[1.1116736E0,1.4327835E0,0E0,1.6052707E0,0E0,0E0,0E0],"parents":[2147483647,0,0,1,1,3,3],"right_children":[2,4,-1,6,-1,-1,-1],"split_conditions":[6.66007E-1,3.9405835E-1,-6.5908544E-2,-2.2548297E-1,7.45195E-2,5.1369607E-2,-7.093946E-2],"split_indices":[30,45,0,56,0,0,0],"split_type":[0,0,0,0,0,0,0],"sum_hessian":[6.7605333E0,4.510257E0,2.2502763E0,3.0910068E0,1.4192502E0,1.0599802E0,2.0310266E0],"tree_param":{"num_deleted":"0","num_feature":"68","num_nodes":"7","size_leaf_vector":"0"}},{"base_weights":[-1.778366E-2,3.2697266E-1,-6.882694E-1,7.7877456E-1,-1.13365844E-1,-6.107857E-1,4.5482725E-1],"categories":[],"categories_nodes":[],"categories_segments":[],"categories_sizes":[],"default_left":[1,1,0,0,1,0,0],"id":55,"left_children":[1,3,-1,-1,5,-1,-1],"loss_changes":[1.5051312E0,9.28422E-1,0E0,0E0,1.0208412E0,0E0,0E0],"parents":[2147483647,0,0,1,1,4,4],"right_children":[2,4,-1,-1,6,-1,-1],"split_conditions":[3.714814E-1,-1.7279547E-1,-6.8826936E-2,7.7877454E-2,-4.23563E-1,-6.1078575E-2,4.5482725E-2],"split_indices":[48,39,0,0,51,0,0],"split_type":[0,0,0,0,0,0,0],"sum_hessian":[5.0006294E0,3.5615203E0,1.4391088E0,1.4674889E0,2.0940316E0,1.0859573E0,1.0080743E0],"tree_param":{"num_deleted":"0","num_feature":"68","num_nodes":"7","size_leaf_vector":"0"}},{"base_weights":[-8.418062E-2,3.585334E-1,-3.9593336E-1,-6.1303206E-2,7.492347E-1,-7.046433E-1,1.4397869E-1],"categories":[],"categories_nodes":[],"categories_segments":[],"categories_sizes":[],"default_left":[1,1,1,0,0,0,0],"id":56,"left_children":[1,3,5,-1,-1,-1,-1],"loss_changes":[1.1814352E0,6.278806E-1,8.9849705E-1,0E0,0E0,0E0,0E0],"parents":[2147483647,0,0,1,1,2,2],"right_children":[2,4,6,-1,-1,-1,-1],"split_conditions":[2.0420218E-1,-4.9943376E-1,5.333676E-1,-6.1303205E-3,7.492347E-2,-7.0464335E-2,1.4397869E-2],"split_indices":[13,27,9,0,0,0,0],"split_type":[0,0,0,0,0,0,0],"sum_hessian":[7.007234E0,2.8479908E0,4.1592436E0,1.6838987E0,1.1640921E0,2.497609E0,1.6616344E0],"tree_param":{"num_deleted":"0","num_feature":"68","num_nodes":"7","size_leaf_vector":"0"}},{"base_weights":[3.146986E-2,4.8062697E-1,-3.7628114E-1,-1.3621747E-1,7.9547244E-1,-6.909864E-1,2.0295894E-2],"categories":[],"categories_nodes":[],"categories_segments":[],"categories_sizes":[],"default_left":[1,1,1,0,0,0,0],"id":57,"left_children":[1,3,5,-1,-1,-1,-1],"loss_changes":[1.3690141E0,7.6916623E-1,5.038725E-1,0E0,0E0,0E0,0E0],"parents":[2147483647,0,0,1,1,2,2],"right_children":[2,4,6,-1,-1,-1,-1],"split_conditions":[-1.6730973E-1,5.1206507E-2,-6.266618E-1,-1.36217475E-2,7.954725E-2,-6.9098644E-2,2.0295894E-3],"split_indices":[37,31,51,0,0,0,0],"split_type":[0,0,0,0,0,0,0],"sum_hessian":[5.95367E0,2.7678924E0,3.1857777E0,1.0821153E0,1.6857771E0,1.4593921E0,1.7263857E0],"tree_param":{"num_deleted":"0","num_feature":"68","num_nodes":"7","size_leaf_vector":"0"}},{"base_weights":[-2.089184E-2,4.5798072E-1,-3.856176E-1,6.7140274E-2,7.0000315E-1,-7.1489936E-1,3.2571247E-1],"categories":[],"categories_nodes":[],"categories_segments":[],"categories_sizes":[],"default_left":[1,1,1,0,0,0,0],"id":58,"left_children":[1,3,5,-1,-1,-1,-1],"loss_changes":[1.2387867E0,2.555328E-1,1.115716E0,0E0,0E0,0E0,0E0],"parents":[2147483647,0,0,1,1,2,2],"right_children":[2,4,6,-1,-1,-1,-1],"split_conditions":[1.6684674E-1,-3.3743173E-1,5.839368E-1,6.7140274E-3,7.000031E-2,-7.148994E-2,3.257125E-2],"split_indices":[12,4,14,0,0,0,0],"split_type":[0,0,0,0,0,0,0],"sum_hessian":[5.553163E0,2.3162637E0,3.2368991E0,1.2597483E0,1.0565153E0,2.2100186E0,1.0268806E0],"tree_param":{"num_deleted":"0","num_feature":"68","num_nodes":"7","size_leaf_vector":"0"}},{"base_weights":[-3.7808828E-2,-7.3976654E-1,1.6254714E-1,-2.8783417E-1,5.293037E-1,2.6401597E-1,-6.403297E-1,7.873813E-1,-1.1850492E-1],"categories":[],"categories_nodes":[],"categories_segments":[],"categories_sizes":[],"default_left":[1,0,1,1,1,0,0,0,0],"id":59,"left_children":[1,-1,3,5,7,-1,-1,-1,-1],"loss_changes":[1.1841143E0,0E0,1.2180984E0,8.080676E-1,7.309729E-1,0E0,0E0,0E0,0E0],"parents":[2147483647,0,0,2,2,3,3,4,4],"right_children":[2,-1,4,6,8,-1,-1,-1,-1],"split_conditions":[-7.624757E-1,-7.397666E-2,-2.557364E-1,-2.3352572E-1,5.1595557E-1,2.6401598E-2,-6.403297E-2,7.873813E-2,-1.1850492E-2],"split_indices":[60,0,66,43,24,0,0,0,0],"split_type":[0,0,0,0,0,0,0,0,0],"sum_hessian":[6.999415E0,1.0965837E0,5.902831E0,2.723306E0,3.1795254E0,1.136383E0,1.5869229E0,2.1557708E0,1.0237546E0],"tree_param":{"num_deleted":"0","num_feature":"68","num_nodes":"9","size_leaf_vector":"0"}},{"base_weights":[-1.29974E-1,2.8482115E-1,-4.5954287E-1,5.684867E-1,-2.1067663E-1,-7.018005E-1,1.3676138E-1],"categories":[],"categories_nodes":[],"categories_segments":[],"categories_sizes":[],"default_left":[1,1,1,0,0,0,0],"id":60,"left_children":[1,3,5,-1,-1,-1,-1],"loss_changes":[9.981691E-1,5.668887E-1,6.4456826E-1,0E0,0E0,0E0,0E0],"parents":[2147483647,0,0,1,1,2,2],"right_children":[2,4,6,-1,-1,-1,-1],"split_conditions":[4.1342485E-1,7.2811645E-1,-1.5670496E-1,5.684867E-2,-2.1067662E-2,-7.018005E-2,1.3676139E-2],"split_indices":[30,54,52,0,0,0,0],"split_type":[0,0,0,0,0,0,0],"sum_hessian":[5.8032985E0,2.615441E0,3.1878572E0,1.5915446E0,1.0238966E0,2.170593E0,1.0172641E0],"tree_param":{"num_deleted":"0","num_feature":"68","num_nodes":"7","size_leaf_vector":"0"}},{"base_weights":[4.6680883E-2,3.1502852E-1,-6.707248E-1,6.3412786E-1,-3.7956968E-1,8.1135035E-1,9.936621E-2],"categories":[],"categories_nodes":[],"categories_segments":[],"categories_sizes":[],"default_left":[1,1,0,1,0,0,0],"id":61,"left_children":[1,3,-1,5,-1,-1,-1],"loss_changes":[1.3013939E0,1.2546083E0,0E0,2.7904892E-1,0E0,0E0,0E0],"parents":[2147483647,0,0,1,1,3,3],"right_children":[2,4,-1,6,-1,-1,-1],"split_conditions":[7.078643E-1,6.5214133E-1,-6.707248E-2,3.4036856E-2,-3.7956968E-2,8.1135035E-2,9.936621E-3],"split_indices":[30,46,0,32,0,0,0],"split_type":[0,0,0,0,0,0,0],"sum_hessian":[5.1543293E0,4.0636535E0,1.090676E0,2.8301299E0,1.2335235E0,1.8282987E0,1.0018312E0],"tree_param":{"num_deleted":"0","num_feature":"68","num_nodes":"7","size_leaf_vector":"0"}},{"base_weights":[2.1969484E-1,-2.814879E-1,5.4718864E-1,1.4516652E-1,-5.9187025E-1,7.288379E-2,6.966987E-1],"categories":[],"categories_nodes":[],"categories_segments":[],"categories_sizes":[],"default_left":[1,1,1,0,0,0,0],"id":62,"left_children":[1,3,5,-1,-1,-1,-1],"loss_changes":[1.1145957E0,4.5050567E-1,2.4000466E-1,0E0,0E0,0E0,0E0],"parents":[2147483647,0,0,1,1,2,2],"right_children":[2,4,6,-1,-1,-1,-1],"split_conditions":[-5.3105474E-1,-5.2503385E-2,-3.6490637E-1,1.4516652E-2,-5.9187025E-2,7.288379E-3,6.966987E-2],"split_indices":[61,32,38,0,0,0,0],"split_type":[0,0,0,0,0,0,0],"sum_hessian":[5.3069196E0,2.1397974E0,3.167122E0,1.072709E0,1.0670886E0,1.031967E0,2.135155E0],"tree_param":{"num_deleted":"0","num_feature":"68","num_nodes":"7","size_leaf_vector":"0"}},{"base_weights":[1.0506001E-1,3.4687465E-1,-3.6435112E-1,7.1182376E-1,-1.1936125E-1],"categories":[],"categories_nodes":[],"categories_segments":[],"categories_sizes":[],"default_left":[1,1,0,0,0],"id":63,"left_children":[1,3,-1,-1,-1],"loss_changes":[7.610596E-1,7.89E-1,0E0,0E0,0E0],"parents":[2147483647,0,0,1,1],"right_children":[2,4,-1,-1,-1],"split_conditions":[5.9536874E-1,-1.09436035E-1,-3.6435112E-2,7.118238E-2,-1.1936125E-2],"split_indices":[59,39,0,0,0],"split_type":[0,0,0,0,0],"sum_hessian":[5.086959E0,3.4892933E0,1.5976658E0,1.73107E0,1.7582232E0],"tree_param":{"num_deleted":"0","num_feature":"68","num_nodes":"5","size_leaf_vector":"0"}},{"base_weights":[-1.0205835E-1,3.442746E-1,-4.5629E-1,-7.367399E-2,6.5278834E-1,-7.0777696E-1,1.2244279E-1],"categories":[],"categories_nodes":[],"categories_segments":[],"categories_sizes":[],"default_left":[1,1,1,0,0,0,0],"id":64,"left_children":[1,3,5,-1,-1,-1,-1],"loss_changes":[1.1422225E0,4.6186426E-1,6.3875467E-1,0E0,0E0,0E0,0E0],"parents":[2147483647,0,0,1,1,2,2],"right_children":[2,4,6,-1,-1,-1,-1],"split_conditions":[5.910812E-3,-3.40755E-1,2.1260639E-1,-7.3673995E-3,6.5278836E-2,-7.07777E-2,1.22442795E-2],"split_indices":[47,62,45,0,0,0,0],"split_type":[0,0,0,0,0,0,0],"sum_hessian":[5.698389E0,2.5309284E0,3.1674604E0,1.3222886E0,1.2086397E0,2.089003E0,1.0784574E0],"tree_param":{"num_deleted":"0","num_feature":"68","num_nodes":"7","size_leaf_vector":"0"}},{"base_weights":[-3.717774E-2,-5.7148594E-1,2.125832E-1,6.1528087E-1,-4.337641E-1,1.7323881E-1,7.6047605E-1],"categories":[],"categories_nodes":[],"categories_segments":[],"categories_sizes":[],"default_left":[1,0,1,1,0,1,1],"id":65,"left_children":[1,-1,3,-1,-1,-1,-1],"loss_changes":[9.304436E-1,0E0,1.4625921E0,1.1063862E-1,0E0,0E0,0E0],"parents":[2147483647,0,0,2,2,3,3],"right_children":[2,-1,4,-1,-1,-1,-1],"split_conditions":[-8.287084E-1,-5.7148594E-2,7.641207E-1,6.1528087E-2,-4.3376412E-2,1.7323881E-2,7.604761E-2],"split_indices":[20,0,56,44,0,2147483647,2147483647],"split_type":[0,0,0,0,0,0,0],"sum_hessian":[5.509897E0,1.4410472E0,4.06885E0,2.5296066E0,1.5392433E0,1.0405402E0,1.4890665E0],"tree_param":{"num_deleted":"2","num_feature":"68","num_nodes":"7","size_leaf_vector":"0"}},{"base_weights":[1.1767672E-1,5.159571E-1,-2.3597802E-1,3.820816E-2,7.4228454E-1,-5.9862196E-1,9.460296E-2],"categories":[],"categories_nodes":[],"categories_segments":[],"categories_sizes":[],"default_left":[1,1,1,0,0,0,0],"id":66,"left_children":[1,3,5,-1,-1,-1,-1],"loss_changes":[9.162889E-1,3.0144125E-1,4.7738022E-1,0E0,0E0,0E0,0E0],"parents":[2147483647,0,0,1,1,2,2],"right_children":[2,4,6,-1,-1,-1,-1],"split_conditions":[-2.2156236E-1,4.72697E-1,-6.479509E-1,3.820816E-3,7.422846E-2,-5.9862196E-2,9.460296E-3],"split_indices":[43,40,28,0,0,0,0],"split_type":[0,0,0,0,0,0,0],"sum_hessian":[5.078073E0,2.223123E0,2.8549502E0,1.0022384E0,1.2208846E0,1.0654699E0,1.7894803E0],"tree_param":{"num_deleted":"0","num_feature":"68","num_nodes":"7","size_leaf_vector":"0"}},{"base_weights":[-1.437869E-1,1.2914966E-1,-5.663521E-1,-2.8772938E-1,5.778592E-1],"categories":[],"categories_nodes":[],"categories_segments":[],"categories_sizes":[],"default_left":[1,1,0,0,0],"id":67,"left_children":[1,3,-1,-1,-1],"loss_changes":[7.515056E-1,9.292409E-1,0E0,0E0,0E0],"parents":[2147483647,0,0,1,1],"right_children":[2,4,-1,-1,-1],"split_conditions":[-1.7720622E-1,-2.3481686E-1,-5.6635212E-2,-2.8772939E-2,5.7785925E-2],"split_indices":[63,66,0,0,0],"split_type":[0,0,0,0,0],"sum_hessian":[5.2649784E0,3.5217774E0,1.7432008E0,1.9680059E0,1.5537715E0],"tree_param":{"num_deleted":"0","num_feature":"68","num_nodes":"5","size_leaf_vector":"0"}},{"base_weights":[-2.2968923E-1,3.4255478E-1,-3.8898274E-1,-6.5099055E-1,2.1302769E-1,-1.6457896E-1,-8.14465E-1],"categories":[],"categories_nodes":[],"categories_segments":[],"categories_sizes":[],"default_left":[1,0,1,1,0,0,0],"id":68,"left_children":[1,-1,3,5,-1,-1,-1],"loss_changes":[6.9106126E-1,0E0,9.600379E-1,2.1232438E-1,0E0,0E0,0E0],"parents":[2147483647,0,0,2,2,3,3],"right_children":[2,-1,4,6,-1,-1,-1],"split_conditions":[-6.799123E-1,3.425548E-2,3.2289368E-1,-4.6071053E-1,2.1302769E-2,-1.6457897E-2,-8.14465E-2],"split_indices":[35,0,45,32,0,0,0],"split_type":[0,0,0,0,0,0,0],"sum_hessian":[5.696729E0,1.048706E0,4.648023E0,3.1951463E0,1.4528767E0,1.1901248E0,2.0050216E0],"tree_param":{"num_deleted":"0","num_feature":"68","num_nodes":"7","size_leaf_vector":"0"}},{"base_weights":[-1.5631329E-1,-5.471584E-1,2.5082433E-1,-7.3674935E-1,-9.981742E-2,5.986441E-1,-2.9010847E-1],"categories":[],"categories_nodes":[],"categories_segments":[],"categories_sizes":[],"default_left":[1,1,1,0,0,0,0],"id":69,"left_children":[1,3,5,-1,-1,-1,-1],"loss_changes":[9.747394E-1,2.0060587E-1,7.35342E-1,0E0,0E0,0E0,0E0],"parents":[2147483647,0,0,1,1,2,2],"right_children":[2,4,6,-1,-1,-1,-1],"split_conditions":[-2.336015E-1,-8.961765E-2,-1.9815719E-1,-7.367494E-2,-9.981742E-3,5.986441E-2,-2.9010847E-2],"split_indices":[66,45,63,0,0,0,0],"split_type":[0,0,0,0,0,0,0],"sum_hessian":[4.6998286E0,2.263574E0,2.4362547E0,1.241971E0,1.0216029E0,1.4331018E0,1.003153E0],"tree_param":{"num_deleted":"0","num_feature":"68","num_nodes":"7","size_leaf_vector":"0"}},{"base_weights":[9.243972E-2,-2.2626704E-1,4.1774315E-1,-6.9455594E-1,4.17531E-1,6.897022E-1,-3.2663837E-2],"categories":[],"categories_nodes":[],"categories_segments":[],"categories_sizes":[],"default_left":[1,1,1,0,0,0,0],"id":70,"left_children":[1,3,5,-1,-1,-1,-1],"loss_changes":[6.792562E-1,1.2631402E0,4.050395E-1,0E0,0E0,0E0,0E0],"parents":[2147483647,0,0,1,1,2,2],"right_children":[2,4,6,-1,-1,-1,-1],"split_conditions":[4.5725548E-1,2.3668727E-1,-2.2156236E-1,-6.9455594E-2,4.1753102E-2,6.8970226E-2,-3.2663837E-3],"split_indices":[40,45,43,0,0,0,0],"split_type":[0,0,0,0,0,0,0],"sum_hessian":[5.0883155E0,2.687935E0,2.4003806E0,1.5211337E0,1.1668016E0,1.2430965E0,1.157284E0],"tree_param":{"num_deleted":"0","num_feature":"68","num_nodes":"7","size_leaf_vector":"0"}},{"base_weights":[-4.151155E-2,-5.5769664E-1,3.370692E-1,-1.9143942E-1,6.074256E-1],"categories":[],"categories_nodes":[],"categories_segments":[],"categories_sizes":[],"default_left":[1,0,1,0,0],"id":71,"left_children":[1,-1,3,-1,-1],"loss_changes":[1.1986754E0,0E0,6.021079E-1,0E0,0E0],"parents":[2147483647,0,0,2,2],"right_children":[2,-1,4,-1,-1],"split_conditions":[-3.5905164E-1,-5.5769663E-2,-3.7703466E-1,-1.9143943E-2,6.0742557E-2],"split_indices":[19,0,51,0,0],"split_type":[0,0,0,0,0],"sum_hessian":[4.6320634E0,1.806617E0,2.8254464E0,1.031823E0,1.7936234E0],"tree_param":{"num_deleted":"0","num_feature":"68","num_nodes":"5","size_leaf_vector":"0"}},{"base_weights":[-2.1239617E-1,-5.788595E-1,3.0992052E-1,-7.1140206E-1,-1.4929426E-1,-8.876817E-2,5.663475E-1],"categories":[],"categories_nodes":[],"categories_segments":[],"categories_sizes":[],"default_left":[1,1,1,1,1,0,0],"id":72,"left_children":[1,-1,5,-1,-1,-1,-1],"loss_changes":[1.2711532E0,1.3209736E-1,3.391519E-1,0E0,0E0,0E0,0E0],"parents":[2147483647,0,0,1,1,2,2],"right_children":[2,-1,6,-1,-1,-1,-1],"split_conditions":[3.7352568E-1,-5.7885952E-2,-5.630957E-1,-7.114021E-2,-1.4929426E-2,-8.876817E-3,5.663475E-2],"split_indices":[36,20,51,2147483647,2147483647,0,0],"split_type":[0,0,0,0,0,0,0],"sum_hessian":[5.1580534E0,2.9825766E0,2.1754766E0,1.8954883E0,1.0870885E0,1.0474358E0,1.1280409E0],"tree_param":{"num_deleted":"2","num_feature":"68","num_nodes":"7","size_leaf_vector":"0"}},{"base_weights":[-5.9942476E-2,5.606198E-1,-4.2937562E-1,-6.7310846E-1,7.602636E-2],"categories":[],"categories_nodes":[],"categories_segments":[],"categories_sizes":[],"default_left":[1,0,1,0,0],"id":73,"left_children":[1,-1,3,-1,-1],"loss_changes":[1.3987731E0,0E0,5.016265E-1,0E0,0E0],"parents":[2147483647,0,0,2,2],"right_children":[2,-1,4,-1,-1],"split_conditions":[-5.027223E-1,5.606198E-2,1.8003199E-1,-6.731085E-2,7.602636E-3],"split_indices":[32,0,20,0,0],"split_type":[0,0,0,0,0],"sum_hessian":[4.5321116E0,1.5434024E0,2.9887092E0,1.8449581E0,1.1437513E0],"tree_param":{"num_deleted":"0","num_feature":"68","num_nodes":"5","size_leaf_vector":"0"}},{"base_weights":[6.964999E-2,-3.0870762E-1,5.7430834E-1,-6.601533E-1,1.389675E-1],"categories":[],"categories_nodes":[],"categories_segments":[],"categories_sizes":[],"default_left":[1,1,0,0,0],"id":74,"left_children":[1,3,-1,-1,-1],"loss_changes":[1.2232862E0,6.607193E-1,0E0,0E0,0E0],"parents":[2147483647,0,0,1,1],"right_children":[2,4,-1,-1,-1],"split_conditions":[5.449079E-1,2.8279883E-1,5.7430834E-2,-6.601533E-2,1.389675E-2],"split_indices":[40,45,0,0,0],"split_type":[0,0,0,0,0],"sum_hessian":[4.930348E0,2.987646E0,1.9427019E0,1.4701724E0,1.5174736E0],"tree_param":{"num_deleted":"0","num_feature":"68","num_nodes":"5","size_leaf_vector":"0"}},{"base_weights":[-2.1892394E-1,2.5212008E-1,-4.53927E-1,-6.6952795E-1,8.3122686E-2],"categories":[],"categories_nodes":[],"categories_segments":[],"categories_sizes":[],"default_left":[1,0,1,0,0],"id":75,"left_children":[1,-1,3,-1,-1],"loss_changes":[7.13499E-1,0E0,5.1102746E-1,0E0,0E0],"parents":[2147483647,0,0,2,2],"right_children":[2,-1,4,-1,-1],"split_conditions":[-1.4234912E-3,2.5212009E-2,5.333676E-1,-6.6952795E-2,8.312269E-3],"split_indices":[6,0,9,0,0],"split_type":[0,0,0,0,0],"sum_hessian":[4.888637E0,1.6085924E0,3.2800448E0,2.2057202E0,1.0743246E0],"tree_param":{"num_deleted":"0","num_feature":"68","num_nodes":"5","size_leaf_vector":"0"}},{"base_weights":[1.1169427E-1,-2.055048E-1,4.2581934E-1,1.4330892E-1,-5.4691637E-1,6.3397396E-1,4.8425246E-2],"categories":[],"categories_nodes":[],"categories_segments":[],"categories_sizes":[],"default_left":[1,1,1,0,0,0,0],"id":76,"left_children":[1,3,5,-1,-1,-1,-1],"loss_changes":[6.344279E-1,4.589338E-1,2.2084844E-1,0E0,0E0,0E0,0E0],"parents":[2147483647,0,0,1,1,2,2],"right_children":[2,4,6,-1,-1,-1,-1],"split_conditions":[-2.3247685E-1,2.1285242E-3,1.7120278E-3,1.4330893E-2,-5.469164E-2,6.33974E-2,4.842525E-3],"split_indices":[66,48,37,0,0,0,0],"split_type":[0,0,0,0,0,0,0],"sum_hessian":[4.9294214E0,2.5844128E0,2.3450084E0,1.4980521E0,1.0863607E0,1.175963E0,1.1690453E0],"tree_param":{"num_deleted":"0","num_feature":"68","num_nodes":"7","size_leaf_vector":"0"}},{"base_weights":[6.2237494E-2,-2.1717651E-1,4.5537752E-1,-4.975599E-1,2.2490272E-1],"categories":[],"categories_nodes":[],"categories_segments":[],"categories_sizes":[],"default_left":[1,1,0,0,0],"id":77,"left_children":[1,3,-1,-1,-1],"loss_changes":[6.509991E-1,5.293654E-1,0E0,0E0,0E0],"parents":[2147483647,0,0,1,1],"right_children":[2,4,-1,-1,-1],"split_conditions":[2.5333673E-1,7.773568E-1,4.553775E-2,-4.975599E-2,2.2490272E-2],"split_indices":[51,42,0,0,0],"split_type":[0,0,0,0,0],"sum_hessian":[4.4716597E0,2.8141773E0,1.6574824E0,1.6632273E0,1.15095E0],"tree_param":{"num_deleted":"0","num_feature":"68","num_nodes":"5","size_leaf_vector":"0"}},{"base_weights":[-7.038093E-2,2.1773013E-1,-4.7008982E-1,-2.0488232E-1,6.688826E-1],"categories":[],"categories_nodes":[],"categories_segments":[],"categories_sizes":[],"default_left":[1,1,0,0,0],"id":78,"left_children":[1,3,-1,-1,-1],"loss_changes":[7.4297285E-1,8.441031E-1,0E0,0E0,0E0],"parents":[2147483647,0,0,1,1],"right_children":[2,4,-1,-1,-1],"split_conditions":[2.1193549E-1,-1.9310236E-1,-4.7008984E-2,-2.0488232E-2,6.6888265E-2],"split_indices":[48,62,0,0,0],"split_type":[0,0,0,0,0],"sum_hessian":[5.0057874E0,3.1115122E0,1.8942751E0,1.8223243E0,1.2891878E0],"tree_param":{"num_deleted":"0","num_feature":"68","num_nodes":"5","size_leaf_vector":"0"}},{"base_weights":[-1.4158225E-2,4.86418E-1,-3.005554E-1,-5.9209347E-1,1.9595776E-1],"categories":[],"categories_nodes":[],"categories_segments":[],"categories_sizes":[],"default_left":[1,0,1,0,0],"id":79,"left_children":[1,-1,3,-1,-1],"loss_changes":[9.0902287E-1,0E0,6.692408E-1,0E0,0E0],"parents":[2147483647,0,0,2,2],"right_children":[2,-1,4,-1,-1],"split_conditions":[2.5032133E-1,4.86418E-2,5.333676E-1,-5.9209347E-2,1.9595778E-2],"split_indices":[13,0,9,0,0],"split_type":[0,0,0,0,0],"sum_hessian":[4.7945843E0,1.5502964E0,3.2442877E0,1.9512261E0,1.2930616E0],"tree_param":{"num_deleted":"0","num_feature":"68","num_nodes":"5","size_leaf_vector":"0"}},{"base_weights":[9.4195776E-2,-2.4991639E-1,4.5313516E-1,-5.4281956E-1,2.3149577E-1,5.3321082E-2,6.713921E-1],"categories":[],"categories_nodes":[],"categories_segments":[],"categories_sizes":[],"default_left":[1,1,1,0,0,0,0],"id":80,"left_children":[1,3,5,-1,-1,-1,-1],"loss_changes":[7.5397164E-1,5.546846E-1,2.2708374E-1,0E0,0E0,0E0,0E0],"parents":[2147483647,0,0,1,1,2,2],"right_children":[2,4,6,-1,-1,-1,-1],"split_conditions":[4.3860254E-1,3.4285265E-1,-5.240357E-1,-5.4281957E-2,2.3149578E-2,5.332108E-3,6.713921E-2],"split_indices":[40,45,19,0,0,0,0],"split_type":[0,0,0,0,0,0,0],"sum_hessian":[4.6369424E0,2.4860723E0,2.1508698E0,1.4849491E0,1.0011232E0,1.09588E0,1.0549898E0],"tree_param":{"num_deleted":"0","num_feature":"68","num_nodes":"7","size_leaf_vector":"0"}},{"base_weights":[1.582449E-2,-2.7628446E-1,5.155013E-1,-5.441764E-1,1.6887014E-1],"categories":[],"categories_nodes":[],"categories_segments":[],"categories_sizes":[],"default_left":[1,1,0,0,0],"id":81,"left_children":[1,3,-1,-1,-1],"loss_changes":[8.138363E-1,4.931832E-1,0E0,0E0,0E0],"parents":[2147483647,0,0,1,1],"right_children":[2,4,-1,-1,-1],"split_conditions":[2.5333673E-1,-2.704272E-1,5.155013E-2,-5.441764E-2,1.6887015E-2],"split_indices":[51,27,0,0,0],"split_type":[0,0,0,0,0],"sum_hessian":[4.0633116E0,2.78023E0,1.2830814E0,1.6293919E0,1.1508383E0],"tree_param":{"num_deleted":"0","num_feature":"68","num_nodes":"5","size_leaf_vector":"0"}},{"base_weights":[-6.0756274E-2,-3.2694492E-1,4.491439E-1,-6.188863E-1,1.1418611E-1],"categories":[],"categories_nodes":[],"categories_segments":[],"categories_sizes":[],"default_left":[1,1,0,0,0],"id":82,"left_children":[1,3,-1,-1,-1],"loss_changes":[7.5409496E-1,5.111715E-1,0E0,0E0,0E0],"parents":[2147483647,0,0,1,1],"right_children":[2,4,-1,-1,-1],"split_conditions":[3.2289368E-1,3.7776223E-1,4.491439E-2,-6.188863E-2,1.1418611E-2],"split_indices":[45,36,0,0,0],"split_type":[0,0,0,0,0],"sum_hessian":[3.962196E0,2.783669E0,1.1785271E0,1.4894755E0,1.2941935E0],"tree_param":{"num_deleted":"0","num_feature":"68","num_nodes":"5","size_leaf_vector":"0"}},{"base_weights":[1.3805176E-2,-1.734663E-1,3.6110055E-1,1.5315267E-1,-5.124741E-1],"categories":[],"categories_nodes":[],"categories_segments":[],"categories_sizes":[],"default_left":[1,1,0,0,0],"id":83,"left_children":[1,3,-1,-1,-1],"loss_changes":[3.3022973E-1,4.2955422E-1,0E0,0E0,0E0],"parents":[2147483647,0,0,1,1],"right_children":[2,4,-1,-1,-1],"split_conditions":[3.2023066E-1,-7.8622945E-2,3.6110055E-2,1.5315267E-2,-5.1247414E-2],"split_indices":[45,54,0,0,0],"split_type":[0,0,0,0,0],"sum_hessian":[3.5747187E0,2.5713289E0,1.0033897E0,1.5233318E0,1.0479972E0],"tree_param":{"num_deleted":"0","num_feature":"68","num_nodes":"5","size_leaf_vector":"0"}},{"base_weights":[-9.63355E-2,-4.350214E-1,1.8961698E-1,-6.882213E-1,-1.6920293E-2,-1.9429114E-1,3.9572927E-1],"categories":[],"categories_nodes":[],"categories_segments":[],"categories_sizes":[],"default_left":[1,1,1,0,0,0,0],"id":84,"left_children":[1,3,5,-1,-1,-1,-1],"loss_changes":[6.2230796E-1,2.95493E-1,3.4875295E-1,0E0,0E0,0E0,0E0],"parents":[2147483647,0,0,1,1,2,2],"right_children":[2,4,6,-1,-1,-1,-1],"split_conditions":[1.9301248E-1,-2.6118886E-1,-5.855094E-1,-6.882213E-2,-1.6920293E-3,-1.9429116E-2,3.9572928E-2],"split_indices":[36,19,64,0,0,0,0],"split_type":[0,0,0,0,0,0,0],"sum_hessian":[5.008142E0,2.1099894E0,2.8981526E0,1.0061289E0,1.1038604E0,1.0277506E0,1.8704021E0],"tree_param":{"num_deleted":"0","num_feature":"68","num_nodes":"7","size_leaf_vector":"0"}},{"base_weights":[-3.6683615E-4,-3.9966375E-1,3.7900326E-1],"categories":[],"categories_nodes":[],"categories_segments":[],"categories_sizes":[],"default_left":[1,0,0],"id":85,"left_children":[1,-1,-1],"loss_changes":[7.7656627E-1,0E0,0E0],"parents":[2147483647,0,0],"right_children":[2,-1,-1],"split_conditions":[-1.6129309E-1,-3.9966375E-2,3.7900325E-2],"split_indices":[52,0,0],"split_type":[0,0,0],"sum_hessian":[3.5955453E0,1.7318158E0,1.8637296E0],"tree_param":{"num_deleted":"0","num_feature":"68","num_nodes":"3","size_leaf_vector":"0"}},{"base_weights":[6.88789E-2,-4.2946333E-1,3.1857207E-1,5.255276E-1,-1.6877934E-1,1.8244E-1,6.31045E-1],"categories":[],"categories_nodes":[],"categories_segments":[],"categories_sizes":[],"default_left":[1,0,1,1,0,1,1],"id":86,"left_children":[1,-1,3,-1,-1,-1,-1],"loss_changes":[7.784182E-1,0E0,4.760123E-1,2.1428823E-2,0E0,0E0,0E0],"parents":[2147483647,0,0,2,2,3,3],"right_children":[2,-1,4,-1,-1,-1,-1],"split_conditions":[3.702403E-2,-4.2946335E-2,7.0028317E-1,5.255276E-2,-1.6877934E-2,1.8244E-2,6.31045E-2],"split_indices":[31,0,56,27,0,2147483647,2147483647],"split_type":[0,0,0,0,0,0,0],"sum_hessian":[4.64859E0,1.3677287E0,3.2808614E0,2.2608287E0,1.0200325E0,1.0231373E0,1.2376915E0],"tree_param":{"num_deleted":"2","num_feature":"68","num_nodes":"7","size_leaf_vector":"0"}},{"base_weights":[6.5656793E-3,3.7185353E-1,-2.9057065E-1,-5.279589E-1,1.5011734E-1],"categories":[],"categories_nodes":[],"categories_segments":[],"categories_sizes":[],"default_left":[1,0,1,0,0],"id":87,"left_children":[1,-1,3,-1,-1],"loss_changes":[6.6974866E-1,0E0,4.1763026E-1,0E0,0E0],"parents":[2147483647,0,0,2,2],"right_children":[2,-1,4,-1,-1],"split_conditions":[2.5032133E-1,3.7185352E-2,1.1864634E-1,-5.2795894E-2,1.5011734E-2],"split_indices":[13,0,27,0,0],"split_type":[0,0,0,0,0],"sum_hessian":[4.642993E0,1.9963144E0,2.6466787E0,1.6215798E0,1.025099E0],"tree_param":{"num_deleted":"0","num_feature":"68","num_nodes":"5","size_leaf_vector":"0"}},{"base_weights":[-1.8079226E-1,1.4637402E-1,-5.565933E-1,-2.9790825E-1,4.9303406E-1],"categories":[],"categories_nodes":[],"categories_segments":[],"categories_sizes":[],"default_left":[1,1,0,0,0],"id":88,"left_children":[1,3,-1,-1,-1],"loss_changes":[6.0036904E-1,5.660654E-1,0E0,0E0,0E0],"parents":[2147483647,0,0,1,1],"right_children":[2,4,-1,-1,-1],"split_conditions":[3.714814E-1,-5.246825E-1,-5.565933E-2,-2.9790824E-2,4.930341E-2],"split_indices":[48,62,0,0,0],"split_type":[0,0,0,0,0],"sum_hessian":[3.6103292E0,2.1798866E0,1.4304428E0,1.0025996E0,1.177287E0],"tree_param":{"num_deleted":"0","num_feature":"68","num_nodes":"5","size_leaf_vector":"0"}},{"base_weights":[-5.333254E-2,-4.5890173E-1,4.027089E-1,-5.617809E-1,-1.5941921E-1],"categories":[],"categories_nodes":[],"categories_segments":[],"categories_sizes":[],"default_left":[1,1,0,1,1],"id":89,"left_children":[1,-1,-1,-1,-1],"loss_changes":[9.9638337E-1,1.7845988E-2,0E0,0E0,0E0],"parents":[2147483647,0,0,1,1],"right_children":[2,-1,-1,-1,-1],"split_conditions":[-2.3545319E-1,-4.5890175E-2,4.027089E-2,-5.6178093E-2,-1.5941922E-2],"split_indices":[22,40,0,2147483647,2147483647],"split_type":[0,0,0,0,0],"sum_hessian":[3.8567839E0,2.0388138E0,1.8179699E0,1.018494E0,1.0203199E0],"tree_param":{"num_deleted":"2","num_feature":"68","num_nodes":"5","size_leaf_vector":"0"}},{"base_weights":[2.1839677E-1,4.6640095E-1,-2.704052E-1,5.960833E-1,1.0598487E-1],"categories":[],"categories_nodes":[],"categories_segments":[],"categories_sizes":[],"default_left":[1,1,0,1,1],"id":90,"left_children":[1,-1,-1,-1,-1],"loss_changes":[6.269291E-1,1.0043484E-1,0E0,0E0,0E0],"parents":[2147483647,0,0,1,1],"right_children":[2,-1,-1,-1,-1],"split_conditions":[7.9052484E-1,4.6640094E-2,-2.704052E-2,5.960833E-2,1.0598487E-2],"split_indices":[30,48,0,2147483647,2147483647],"split_type":[0,0,0,0,0],"sum_hessian":[3.6097505E0,2.4180048E0,1.1917456E0,1.4100997E0,1.0079051E0],"tree_param":{"num_deleted":"2","num_feature":"68","num_nodes":"5","size_leaf_vector":"0"}},{"base_weights":[-8.5198425E-2,2.5187194E-1,-3.684223E-1],"categories":[],"categories_nodes":[],"categories_segments":[],"categories_sizes":[],"default_left":[1,0,0],"id":91,"left_children":[1,-1,-1],"loss_changes":[4.99704E-1,0E0,0E0],"parents":[2147483647,0,0],"right_children":[2,-1,-1],"split_conditions":[-1.1172466E-1,2.5187194E-2,-3.684223E-2],"split_indices":[43,0,0],"split_type":[0,0,0],"sum_hessian":[3.7247894E0,1.7394145E0,1.9853748E0],"tree_param":{"num_deleted":"0","num_feature":"68","num_nodes":"3","size_leaf_vector":"0"}},{"base_weights":[-1.9395424E-2,-3.1152385E-1,4.3803707E-1,9.167746E-2,-5.8105946E-1],"categories":[],"categories_nodes":[],"categories_segments":[],"categories_sizes":[],"default_left":[1,1,0,0,0],"id":92,"left_children":[1,3,-1,-1,-1],"loss_changes":[7.218453E-1,3.9581227E-1,0E0,0E0,0E0],"parents":[2147483647,0,0,1,1],"right_children":[2,4,-1,-1,-1],"split_conditions":[-1.741564E-1,-2.7414155E-1,4.3803707E-2,9.167746E-3,-5.8105946E-2],"split_indices":[62,41,0,0,0],"split_type":[0,0,0,0,0],"sum_hessian":[3.8546736E0,2.50139E0,1.3532836E0,1.2045745E0,1.2968154E0],"tree_param":{"num_deleted":"0","num_feature":"68","num_nodes":"5","size_leaf_vector":"0"}},{"base_weights":[4.9934767E-2,3.715258E-1,-1.9427001E-1,-5.4225504E-1,3.5332873E-1],"categories":[],"categories_nodes":[],"categories_segments":[],"categories_sizes":[],"default_left":[1,0,1,0,0],"id":93,"left_children":[1,-1,3,-1,-1],"loss_changes":[4.5051277E-1,0E0,7.875699E-1,0E0,0E0],"parents":[2147483647,0,0,2,2],"right_children":[2,-1,4,-1,-1],"split_conditions":[2.0420218E-1,3.715258E-2,5.270361E-1,-5.4225504E-2,3.5332873E-2],"split_indices":[13,0,13,0,0],"split_type":[0,0,0,0,0],"sum_hessian":[4.2675223E0,1.6696602E0,2.597862E0,1.593013E0,1.004849E0],"tree_param":{"num_deleted":"0","num_feature":"68","num_nodes":"5","size_leaf_vector":"0"}},{"base_weights":[-9.343241E-2,-4.683761E-1,1.9003999E-1,-1.7832944E-1,5.229551E-1],"categories":[],"categories_nodes":[],"categories_segments":[],"categories_sizes":[],"default_left":[1,0,1,0,0],"id":94,"left_children":[1,-1,3,-1,-1],"loss_changes":[5.754161E-1,0E0,4.7148246E-1,0E0,0E0],"parents":[2147483647,0,0,2,2],"right_children":[2,-1,4,-1,-1],"split_conditions":[-1.9776808E-1,-4.683761E-2,-1.7053136E-1,-1.7832944E-2,5.2295513E-2],"split_indices":[36,0,51,0,0],"split_type":[0,0,0,0,0],"sum_hessian":[4.007286E0,1.5103117E0,2.4969742E0,1.3541063E0,1.142868E0],"tree_param":{"num_deleted":"0","num_feature":"68","num_nodes":"5","size_leaf_vector":"0"}},{"base_weights":[7.4613504E-2,3.0957046E-1,-3.1712285E-1,-9.566485E-3,5.6194884E-1],"categories":[],"categories_nodes":[],"categories_segments":[],"categories_sizes":[],"default_left":[1,1,0,0,0],"id":95,"left_children":[1,3,-1,-1,-1],"loss_changes":[5.082029E-1,2.7219355E-1,0E0,0E0,0E0],"parents":[2147483647,0,0,1,1],"right_children":[2,4,-1,-1,-1],"split_conditions":[2.0275825E-1,-2.0651925E-1,-3.1712286E-2,-9.566485E-4,5.6194883E-2],"split_indices":[32,67,0,0,0],"split_type":[0,0,0,0,0],"sum_hessian":[3.9395108E0,2.5628908E0,1.37662E0,1.4569821E0,1.1059086E0],"tree_param":{"num_deleted":"0","num_feature":"68","num_nodes":"5","size_leaf_vector":"0"}},{"base_weights":[-1.7382555E-2,-4.7500503E-1,3.1746498E-1,6.1245984E-1,-7.838652E-2],"categories":[],"categories_nodes":[],"categories_segments":[],"categories_sizes":[],"default_left":[1,0,1,0,0],"id":96,"left_children":[1,-1,3,-1,-1],"loss_changes":[8.3359396E-1,0E0,4.063669E-1,0E0,0E0],"parents":[2147483647,0,0,2,2],"right_children":[2,-1,4,-1,-1],"split_conditions":[4.3748446E-2,-4.7500502E-2,-2.1080634E-1,6.1245985E-2,-7.8386525E-3],"split_indices":[31,0,35,0,0],"split_type":[0,0,0,0,0],"sum_hessian":[3.9212108E0,1.5214695E0,2.3997412E0,1.1350282E0,1.2647129E0],"tree_param":{"num_deleted":"0","num_feature":"68","num_nodes":"5","size_leaf_vector":"0"}},{"base_weights":[9.652768E-2,-2.3957759E-1,5.935921E-1,-5.9766316E-1,1.5451245E-1],"categories":[],"categories_nodes":[],"categories_segments":[],"categories_sizes":[],"default_left":[1,1,0,0,0],"id":97,"left_children":[1,3,-1,-1,-1],"loss_changes":[8.5565174E-1,5.239849E-1,0E0,0E0,0E0],"parents":[2147483647,0,0,1,1],"right_children":[2,4,-1,-1,-1],"split_conditions":[7.9534215E-1,-3.5905164E-1,5.935921E-2,-5.976632E-2,1.5451245E-2],"split_indices":[42,19,0,0,0],"split_type":[0,0,0,0,0],"sum_hessian":[3.7045472E0,2.4466822E0,1.2578647E0,1.074723E0,1.3719593E0],"tree_param":{"num_deleted":"0","num_feature":"68","num_nodes":"5","size_leaf_vector":"0"}},{"base_weights":[-9.395822E-2,-4.679042E-1,2.1812534E-1],"categories":[],"categories_nodes":[],"categories_segments":[],"categories_sizes":[],"default_left":[1,0,0],"id":98,"left_children":[1,-1,-1],"loss_changes":[5.5700654E-1,0E0,0E0],"parents":[2147483647,0,0],"right_children":[2,-1,-1],"split_conditions":[-3.8444877E-1,-4.679042E-2,2.1812534E-2],"split_indices":[36,0,0],"split_type":[0,0,0],"sum_hessian":[3.3379378E0,1.3446022E0,1.9933357E0],"tree_param":{"num_deleted":"0","num_feature":"68","num_nodes":"3","size_leaf_vector":"0"}},{"base_weights":[1.167182E-1,-2.9392314E-1,4.4613987E-1,1.20175265E-1,5.784198E-1],"categories":[],"categories_nodes":[],"categories_segments":[],"categories_sizes":[],"default_left":[1,0,1,1,1],"id":99,"left_children":[1,-1,-1,-1,-1],"loss_changes":[7.020763E-1,0E0,6.6318154E-2,0E0,0E0],"parents":[2147483647,0,0,2,2],"right_children":[2,-1,-1,-1,-1],"split_conditions":[-1.9879654E-1,-2.9392315E-2,4.4613987E-2,1.2017527E-2,5.7841983E-2],"split_indices":[36,0,27,2147483647,2147483647],"split_type":[0,0,0,0,0],"sum_hessian":[3.682497E0,1.6758951E0,2.006602E0,1.00096E0,1.0056419E0],"tree_param":{"num_deleted":"2","num_feature":"68","num_nodes":"5","size_leaf_vector":"0"}}]},"name":"gbtree"},"learner_model_param":{"base_score":"5E-1","boost_from_average":"0","num_class":"0","num_feature":"68","num_target":"1"},"objective":{"name":"binary:logistic","reg_loss_param":{"scale_pos_weight":"1"}}},"version":[1,7,6]}